500 64
712911 0.18349284 -0.28280824 0.18717225 0.40206274 0.06783538 -0.06972071 -0.1502337 -0.08216499 0.45463473 0.064528205 0.13979387 0.19842826 0.22089593 -0.13006637 0.2585015 0.118507996 0.044382244 0.16731521 -0.12385573 0.24156691 -0.43238422 0.22694235 0.048276383 -0.024955105 0.35191023 0.07985499 -0.24215002 0.21533793 0.07293094 -0.05978018 0.1774168 -0.26792726 -0.0637634 -0.30365855 0.22901304 -0.009341314 -0.14996044 0.07739312 0.009729544 0.3344645 -0.046963833 -0.16774881 -0.0291493 -0.0156167615 -0.08256468 0.28958085 0.29946488 -0.067525856 0.14312838 0.1570662 0.2265877 0.25334036 -0.028736012 0.3354379 -0.13084064 0.068973616 -0.024495015 -0.21010374 -0.11074066 -0.1326144 0.18223013 0.39876065 -0.30002728 0.4969498
713919 -0.0045422763 0.03178293 0.1163 0.09208242 0.065779775 -0.056799803 -0.02472362 -0.041912023 0.0460055 0.0596463 -0.09249706 -0.103742346 0.26428553 -0.15924972 0.489963 0.01215612 -0.26875517 0.051461753 -0.13685723 0.16928785 0.03416584 0.15031227 0.11904362 -0.080942556 0.07353695 0.030878909 -0.1915731 0.07598842 0.091495104 -0.07171818 -0.041558612 0.13485083 -0.3853664 0.1844251 0.011236818 -0.08102465 -0.20258884 -0.17631009 0.33468837 -0.06349675 -0.062361415 -0.09854762 0.025613952 -0.17136766 0.15515219 0.081207864 -0.054393776 0.27378002 -0.15661468 0.10251612 -0.025724482 0.113716155 -0.14203002 0.17171678 0.2601803 0.18665211 0.11303626 0.00041707628 0.14249045 -0.22629003 -0.029381275 -0.22435395 0.07789676 0.0522302
713701 0.25119427 0.025762822 0.08982457 0.33307794 -0.07098008 -0.16581263 0.008547677 -0.2012538 0.12765707 0.13069117 0.0077963416 0.115706235 0.06483788 0.11669956 -0.15411204 -0.13963114 -0.038709536 0.20715764 -0.026420722 0.19674535 0.22213772 0.3584156 0.019685661 -0.09176296 0.13485762 0.2980409 0.03285943 0.08023358 -0.21785755 -0.0066308114 0.03178067 -0.104915306 -0.040775415 -0.053935137 -0.12886532 -0.08718572 0.16004094 0.10399481 -0.033053253 -0.028532866 -0.037974015 -0.111895785 0.05038408 0.09177248 -0.106475 0.0053153946 0.20932597 -0.082798086 -0.025184557 0.1423972 -0.1523326 -0.20219924 -0.25904223 0.22789086 0.015217494 0.19268249 -0.17277926 0.13157597 -0.027865948 0.14148913 0.096343115 -0.1795806 -0.1090861 0.064601
715495 0.0042180954 -0.0036267147 -0.11370568 0.18122004 0.16816378 -0.20827839 -0.35649663 -0.40300223 -0.24768497 0.09623224 -0.12890403 0.03413901 0.04598979 0.46338072 0.2461412 0.24545652 0.2944584 -0.2675612 0.3784071 -0.13628848 -0.055400386 0.1834708 0.062087696 -0.084191434 0.25830692 0.12322141 -0.10364991 -0.040136557 -0.6433822 -0.045063943 0.06395076 0.102931276 0.14384355 0.0008586182 -0.011610649 -0.2260645 -0.010670491 0.39356855 0.07438065 0.15641503 0.07657887 0.08194891 0.19586112 0.054600354 -0.30453363 -0.2172725 0.10388984 -0.09063264 -0.39041206 0.08034587 0.08443086 -0.03590009 -0.26196024 0.34083152 -0.31932738 0.08061643 0.22189899 -0.20932695 -0.29564205 -0.010950084 -0.16923077 0.057564344 -0.30000973 0.15141757
714729 0.100399025 -0.22723942 -0.065691195 0.20183168 -0.14996004 0.198576 0.13886459 0.12993729 0.37614632 0.28786296 -0.3509069 -0.080519535 0.14139695 -0.016223216 0.011065762 -0.058491595 -0.036968183 -0.08172213 0.08127088 -0.2087637 -0.08968767 0.17766693 0.19161808 -0.09085931 -0.06867413 -0.084885426 0.17116866 0.18434487 0.15266559 -0.45958334 0.17405722 -0.15618177 0.12646827 0.041495737 -0.33637792 -0.12690113 0.18286338 0.08190807 -0.12336537 -0.05828483 -0.038169958 -0.20091863 -0.22282398 -0.14695016 -0.09395003 0.30426085 -0.12083487 -0.029524228 -0.075856194 -0.035370655 -0.3742022 -0.19852576 0.027939927 0.12465375 -0.50502497 -0.14019075 -0.10557528 0.23377538 -0.06260151 -0.46769673 -0.18878287 -0.36226872 -0.07574806 0.3326709
1963161 -0.20201825 -0.08317869 -0.12909763 0.01849437 -0.06344698 -0.06111192 0.043341838 -0.109989814 0.24731596 0.31705517 0.05808311 0.123792805 0.16312623 0.118953064 0.17040439 0.019090336 -0.23452184 -0.07776547 -0.032713864 0.023560617 0.14001057 0.2321463 0.017366441 0.06837956 -0.05404361 0.034498036 0.09846104 -0.22998112 -0.086211406 0.05269173 0.10137318 -0.0063555767 -0.21126324 0.28429478 -0.07518275 -0.22510146 0.0018220716 0.17701198 0.121034004 -0.14847057 -0.059298582 0.06532592 0.00874354 -0.08497303 0.18913409 0.18106705 0.21451907 -0.18076552 0.028447682 0.36835736 0.05599716 0.11854677 0.027191184 0.0657684 -0.16949745 -0.008801585 -0.1393203 0.09160991 0.14354327 -0.038328853 0.028776351 -0.13040665 -0.1978718 0.1896924
713012 -0.08357767 0.012916404 0.0023441387 0.13372763 -0.14876063 0.17673594 0.0013138261 -0.044846073 0.14092998 -0.20739521 -0.009120364 0.23526205 -0.05026193 0.0328797 -0.058273178 0.053147458 -0.21687159 0.42122594 0.07733862 0.085435785 -0.13232948 0.049722906 0.01279031 0.35113764 -0.10134284 0.037622463 0.02711992 0.17039406 -0.020426493 0.122100316 0.007174559 -0.07634403 0.041558545 0.08927989 -0.11054283 -0.11377721 0.0172996 -0.24182278 0.07293553 0.12579532 -0.058601495 -0.060456622 -0.08722146 0.085594766 0.17264678 0.036752712 0.04224022 -0.2678931 -0.18977545 0.22276434 0.22827037 -0.1827986 -0.0587342 0.08523731 -0.15246007 -0.03461999 -0.16711609 -0.018896943 -0.16024773 -0.38770926 0.001999804 -0.15481207 -0.043312356 0.213047
713855 -0.14535189 -0.12142721 0.059206415 0.20489796 -0.10736483 0.2406034 -0.029403044 -0.14195295 -0.0758739 0.023936208 -0.039812326 -0.07736142 0.017686045 0.016638244 0.15279216 -0.0642508 -0.3080948 -0.17027085 0.18969624 0.044514466 -0.054941215 0.035176616 0.033832885 -0.12767304 -0.18804446 0.14841753 0.014717043 0.018772982 -0.08107786 -0.09708684 0.18685843 0.00308193 0.11233206 0.09233852 0.031243151 0.024047913 -0.08772501 0.080610774 0.21983363 0.07782742 0.20287251 -0.21769874 0.26764432 -0.18189469 0.062011298 -0.19446395 0.02286829 -0.06841165 0.11973403 0.1773415 0.21893638 0.07785366 -0.15663247 -0.0021637273 0.1932952 -0.056672454 -0.13490862 -0.007474015 0.1615219 -0.17186944 -0.035320986 0.104116574 -0.22790162 0.08939632
715140 0.03860662 0.10688503 -0.5856835 0.09861829 -0.17075697 0.0034744688 0.25923714 -0.11150116 0.041795716 0.11461406 0.1520118 -0.21923013 0.06065154 0.02640686 -0.07023951 0.009295585 0.09572163 -0.24852327 0.011485662 0.19893532 -0.15984485 0.15539232 0.119373895 0.06526656 -0.29505408 0.28251466 0.3057559 -0.049453374 0.020980643 -0.29883233 -0.20652838 -0.09203208 0.07250965 -0.23563048 0.06974016 0.030669162 0.0066667614 0.053785376 0.31979635 -0.0018458029 -0.14373559 -0.07789993 0.017994331 0.18444847 -0.03342991 0.15215673 0.06770749 -0.15124434 0.18198547 0.111482054 0.15623716 -0.13150203 -0.18341182 0.2167541 -0.13295257 -0.001215289 -0.11301405 0.16350967 0.1533983 0.34118977 -0.18157855 -0.31732416 -0.12960297 -0.030273931
713547 0.10000073 0.17524454 0.21906404 0.4437026 -0.09093117 0.203274 -0.6574606 -0.5751532 0.1018119 0.26006368 0.16884333 -0.2801641 0.42001918 -0.22298849 -0.3379356 -0.27214116 0.3113656 -0.12859558 -0.13545607 -0.19115049 0.4981584 0.4760167 0.32158908 -0.22400624 -0.089868695 -0.26315567 -0.15294495 0.06302104 0.2858664 0.053422768 -0.29332027 -0.21595454 0.27589172 -0.15872435 -0.16064706 -0.13859795 -0.0666872 0.13595462 0.24412185 0.083541974 0.011077447 -0.31204724 0.17640007 -0.26504096 0.23613304 -0.1012162 -0.08671026 -0.2812664 -0.17216736 -0.53543943 -0.20484836 -0.08600482 -0.52571857 0.025776362 0.40721408 0.0924334 0.24891706 0.7061563 0.070972435 -0.27555716 0.021859698 -0.24899666 -0.13921542 0.09412354
715634 -0.038693424 -0.120770246 -0.1827782 0.39265937 -0.2245208 0.38967487 0.036707778 -0.22018474 -0.15855448 0.1904197 -0.18598028 -0.17385739 0.071057014 -0.14023861 -0.08551563 0.15305693 0.24174002 0.3090597 -0.059300724 -0.19110161 0.17914383 -0.15561911 0.15925962 0.05960131 0.54333246 -0.0112974085 0.12820536 -0.046849772 -0.3843663 -0.23307581 0.17412737 -0.19187045 0.24661422 -0.2839405 0.12147615 0.2246841 -0.20388387 0.016079506 0.2892471 0.18669139 0.09236173 0.1927995 -0.26557297 0.41082138 0.0520896 -0.0032383427 0.28867698 -0.45034808 -0.41014796 -0.048446327 0.33211207 -0.3782935 -0.22753032 -0.09188151 -0.33253688 -0.2050767 -0.1975837 0.27844623 -0.35139924 0.018472139 0.060842067 -0.06988666 -0.09137387 -0.36141324
292073 -0.08047764 -0.094062656 -0.12290396 0.18349276 -0.03225412 -0.270587 0.015043925 -0.39602542 -0.16401969 0.21337678 -0.101305574 0.038299724 0.15374093 0.17660646 0.15398797 0.10416653 -0.5123558 -0.17964153 0.11132514 0.08301752 0.059523564 0.059736375 -0.092217594 0.026876198 0.25671542 -0.07950003 0.08435455 -0.12121246 0.15086833 -0.053483713 0.21922424 0.008192356 -0.026631609 0.11648061 -0.010699382 -0.061628863 0.3203054 0.05768376 -0.08182398 0.08488115 0.073593065 0.08896021 -0.02260848 0.19413966 0.043451022 -0.11457056 -0.1889375 0.010189152 -0.03163092 0.34989882 0.15951104 -0.16206199 -0.00011860083 0.080653325 0.025810635 0.18570642 0.13117543 0.12084851 -0.2147646 0.26664567 -0.007183278 0.13189454 0.29716033 -0.43000782
715198 0.33726147 0.1329593 0.18352942 0.17289387 0.28479066 0.06662656 0.19747412 0.03698057 0.18050943 0.23489031 0.10926655 -0.08531295 0.087861806 0.025419297 0.18879397 0.068341784 -0.020530885 0.03467271 -0.06433751 -0.3195595 -0.17743969 -0.19619413 -0.12409629 0.10345891 -0.0773667 -0.4632511 0.33636647 0.03141446 -0.44953278 -0.18657368 -0.118046455 0.006859149 -0.036910553 0.21536162 0.24574202 0.07244889 0.029724946 -0.042918622 -0.058740575 -0.18338522 -0.08825546 0.1972185 0.086517625 0.23785935 -0.19605607 -0.016566722 -0.21918026 -0.10039668 0.32750678 0.028977012 0.059604738 -0.14615552 -0.39224446 0.31633693 0.058077093 -0.6164147 0.42275262 0.0057172566 0.06262204 0.33703247 0.0034389566 0.03264841 0.0773642 -0.11956675
714225 -0.03729232 -0.048539046 0.12367771 -0.016363513 -0.22273405 -0.01813072 0.098769315 0.042362593 -0.06960505 -0.09209881 0.002912845 0.06073212 -0.008399431 -0.26980048 -0.05631052 0.059438944 -0.21756667 0.012201437 -0.18930823 -0.078996874 -0.14728957 0.15097156 0.2928492 -0.10320759 -0.15104552 0.052233502 0.398163 0.01834567 0.0015288832 0.1278764 -0.06816142 0.13659927 0.1456617 -0.017653044 0.10564789 -0.108938605 0.014302476 0.2607024 0.16455476 -0.07941651 -0.07861582 0.096605904 0.50055027 -0.20793992 0.26253244 0.26100695 0.12278215 -0.16419974 0.107932806 0.06675701 0.47324637 -0.16849251 -0.06763672 0.15945695 -0.08050029 -0.013544279 -0.029913954 -0.1837949 0.10880867 -0.14031528 -0.22435904 -0.06531682 0.057119697 0.26501504
714216 -0.1841847 0.22090994 -0.08827454 0.19025725 -0.14386894 -0.12675944 -0.060767014 -0.12569456 -0.1645054 0.020378813 0.14317627 0.074365124 0.048526973 -0.24593127 0.28031388 0.110407956 -0.0861377 -0.049592298 0.055409875 0.29816648 0.03130747 -0.119034104 0.1262673 0.16858858 -0.21407269 -0.22615369 0.05172996 -0.0021713374 -0.018857544 0.011592857 -0.20559728 -0.05644252 -0.06744527 0.15274112 -0.1472865 -0.1680016 -0.26438424 0.06139838 0.25135466 -0.30504584 0.02709752 -0.21157537 -0.3242832 0.21122104 0.016935626 0.20316784 -0.08672643 0.0857366 0.082492575 0.0883116 -0.15938537 0.15257773 -0.07401216 -0.05721371 -0.2182247 0.052273083 0.07577516 0.147246 0.028648892 0.028579649 -0.15595406 0.07635314 -0.2062291 -0.5246654
713892 -0.03436306 0.114358716 0.3086597 0.12887146 0.07019701 0.09523948 0.027113784 -0.14912322 0.15010013 -0.12257475 0.16057673 0.16304997 -0.021945503 -0.043493625 -0.058708582 0.3496036 -0.13376667 -0.011973523 0.24598844 -0.07116365 -0.07704504 0.14795248 0.12343452 0.1726448 -0.18624319 -0.052357536 0.17333588 -0.112145334 0.13403463 -0.027609117 -0.035044644 -0.26493806 0.029410413 0.0023424893 -0.054041233 0.068005875 0.067527935 0.13129942 0.10004869 0.058956206 0.04170676 0.11799594 0.09160188 0.053071283 0.19850409 0.040712524 0.11041721 -0.035220873 -0.2800875 0.21985573 -0.16123793 -0.043489527 -0.21511196 -0.03755474 0.22588192 0.004843534 0.09840137 0.15462996 0.20731066 0.067376606 -0.16129622 0.13319924 0.0302251 -0.04491946
714116 -0.10582794 -0.12092417 0.12429923 0.30609828 -0.07890483 -0.072153494 -0.06867698 -0.08145105 0.17815301 0.12551565 -0.01966903 -0.085393414 0.042035934 -0.519126 0.10219111 0.029151812 0.041340563 -0.2720995 0.22271138 -0.17144507 -0.028172212 -0.002154074 -0.1183796 -0.2920013 0.1310423 -0.19400568 0.030785251 0.12608999 -0.025968548 -0.09985506 -0.25059798 -0.40644604 -0.09485658 -0.04792922 -0.004053934 -0.2118111 -0.21159187 0.07286678 0.27763635 -0.0061476366 -0.18514901 0.011963163 -0.018381312 0.030438446 -0.022823118 0.22901766 -0.041928843 -0.047194358 -0.09056054 0.057157487 -0.09097601 -0.07541357 -0.13013078 -0.12559079 0.17762077 -0.14874344 -0.18404472 -0.053790096 -0.20730771 -0.16992947 -0.11117036 -0.27252844 -0.022948531 -0.27355915
713275 0.18952905 0.00051921594 0.17154457 0.07066419 0.06511188 -0.0036978552 -0.17764448 0.031570364 0.11226018 0.0944378 0.22287692 -0.02129797 0.028513595 -0.05429265 0.08350126 -0.21726441 -0.33909404 -0.045177624 0.06476264 0.01776904 -0.16850097 0.2122846 0.2230402 -0.14908955 0.031953495 0.14910075 -0.12876849 0.10635486 0.071711496 0.07084553 0.05655231 0.2869085 -0.04640095 0.07977365 -0.10307819 -0.21342164 -0.046444133 -0.16525126 0.25193748 -0.0023680022 0.049051408 0.013450915 0.1458226 -0.09555618 -0.08361075 0.022263112 0.049035773 -0.112964176 -0.002951894 0.26570934 0.13309944 0.23383462 -0.04915042 -0.048747078 0.0896725 0.110431276 0.30680683 0.24761118 0.16165066 0.15061188 0.094178855 0.20552267 -0.39508474 0.027750308
713716 -0.037435167 0.14595424 -0.2275601 0.591501 0.08434867 -0.07844692 -0.12398631 -0.07987444 -0.321543 0.16465014 0.0019289741 0.2135204 -0.28610027 -0.025580382 0.04044975 0.28724986 -0.08267227 -0.045498494 -0.015595229 -0.14557528 -0.0012610428 0.22639582 0.19578701 -0.25303802 0.008550429 0.12925112 0.09179982 -0.21800184 0.23533125 -0.1387075 -0.30674574 -0.24471337 -0.074720934 -0.09226497 0.05080599 -0.072168484 0.09969768 0.012539541 0.15810686 -0.31520104 -0.00012569888 -0.06183699 -0.050809838 -0.06497085 0.30142424 0.33935198 -0.15957884 0.19758442 -0.23523636 0.17683782 -0.38997242 0.12522438 0.009570136 0.09411925 -0.0748719 -0.11153422 -0.18719363 -0.020676006 0.07309014 -0.023468474 0.08328189 -0.07729642 -0.19128615 -0.094221525
713767 0.03646567 0.13828515 0.34206742 0.13584632 -0.04400289 0.13913435 -0.17374386 0.12110474 0.07876837 -0.08265956 -0.21554337 0.15778564 -0.1999241 0.10202677 -0.05678274 -0.17404585 -0.2577779 -0.03744142 -0.24371648 0.0030091885 0.15413457 0.18759924 -0.009742801 -0.09489246 0.15918967 -0.12551513 0.23267987 -0.019876905 0.22089641 0.023612985 -0.16047177 0.15065275 0.009757433 -0.0052932114 -0.050834212 0.009235007 -0.18407999 0.02630451 0.15620027 0.15425642 0.10221401 -0.04886582 0.16967125 -0.2520572 0.19010276 0.100815274 -0.122402005 -0.0041105677 0.06854218 0.35706416 0.016694535 -0.045960393 -0.11990097 0.11411963 0.30020723 0.1188333 0.006315402 0.021753361 -0.031036444 -0.0033246763 -0.2102039 0.14311999 -0.24947561 -0.24783635
713410 -0.06891118 -0.28311297 -0.23097573 0.13188969 0.11096216 0.10489516 -0.14268336 0.11434172 0.090450205 -0.011500404 -0.083677955 -0.022786558 0.22027732 -0.18264173 -0.114241734 0.121172726 -0.36564413 0.108381495 0.13215809 -0.071478374 0.14870925 0.17032412 0.1665219 -0.105384625 0.21763788 -0.14250213 -0.0496591 0.0035033408 -0.1341578 0.024529353 0.036389157 0.16166764 -0.042916883 0.23859996 -0.0036806306 -0.11565422 -0.03463477 -0.051837444 0.30466235 -0.023396388 -0.06575143 -0.17693517 -0.15528002 -0.055275325 0.071921326 -0.05669128 0.2161294 0.19302918 -0.29103655 0.1289319 -0.032200754 0.10095943 -0.07320127 -0.07281512 0.22739062 -0.19052449 0.13813907 -0.04506936 -0.030560665 0.089072 0.057712752 0.14833802 -0.09408515 0.124440126
714046 0.07329332 0.14561176 0.19972862 -0.13532107 -0.03068498 -0.13430627 -0.0039523696 -0.07674217 0.07855166 -0.020010324 -0.00950173 0.041303445 0.22967432 -0.21514118 0.13581489 0.14119779 -0.080554694 0.11914184 -0.07925786 0.0850382 -0.16063173 0.10927965 -0.052383706 -0.10545991 0.03277653 -0.16713385 0.024095664 0.021486327 0.022156958 -0.032740865 -0.33200946 -0.1553396 -0.062853985 0.019337315 0.024172353 0.0041742073 0.01291663 0.24251497 0.16335309 -0.16075386 -0.045080923 -0.07520522 0.07464737 0.109259225 0.21692517 0.076427266 -0.05361069 0.10988198 -0.21178544 0.09008118 -0.045861673 0.0051946826 -0.16545145 -0.030227346 0.31092077 -0.024601059 0.21429431 0.15842232 -0.10326978 -0.16803859 -0.39881217 0.024420213 0.03130028 0.22885437
713639 -0.049020592 -0.081644334 -0.06182003 0.023332614 -0.094238214 0.14167176 0.059259422 0.103120916 0.042854276 0.19690546 -0.1760641 -0.033221293 0.11370796 -0.034353204 -0.003464418 -0.1600948 -0.10608507 -0.13884774 0.10236633 0.121789575 0.14084695 -0.015654484 0.21624814 0.010593753 0.23193444 0.16126077 -0.25601614 0.004365468 0.051509213 -0.1996928 -0.17990597 0.123399444 0.099208884 0.10503187 -0.15056755 0.032161087 -0.17532247 0.103084534 -0.005816096 -0.16221927 0.22998427 -0.19431604 -0.14234608 0.12634407 0.07090269 -0.120490536 -0.0270451 -0.17253715 -0.047312114 0.35763228 0.03971433 0.10932023 -0.6496467 0.18426315 0.043485854 -0.040282857 -0.15801059 -0.12553915 0.13913076 0.0125368275 0.19609506 0.11306155 0.16727929 0.10668382
713929 -0.095141724 0.17629544 -0.011251104 0.16854319 -0.033069845 -0.023804976 -0.116842516 0.0127257025 0.14764981 -0.03753994 0.3760864 0.1893552 -0.0591114 -0.21607272 0.02618099 -0.06362768 -0.17691876 -0.15258835 0.08383091 0.09423666 0.00095200556 0.17038113 -0.045105904 -0.054426767 -0.16957632 -0.12775221 0.25410226 -0.026447041 0.1581749 -0.067786895 -0.1873929 -0.083224915 -0.24090287 0.09689022 -0.093448974 -0.15050095 -0.1262095 -0.02243572 0.2817972 0.0391999 0.043748356 -0.15200318 0.043878336 -0.19277793 0.12693365 -0.1269446 -0.1509234 0.0762924 0.024803942 0.110520266 0.10604366 -0.19034913 -0.0932459 -0.09740514 -0.06725927 -0.03736498 0.16662467 -0.07012333 0.042061377 -0.30425975 0.02507055 0.1950703 -0.17326257 -0.04522042
713619 0.17167607 -0.07961928 0.03557967 0.01926679 0.0703285 0.03971816 -0.17865583 -0.12230999 0.048975024 -0.22867791 0.14533116 0.09579869 0.1779848 -0.21394838 0.023058314 0.10358913 -0.15286797 0.048912227 -0.019671438 -0.14551528 -0.08953127 -0.0013149489 0.10262754 -0.01247124 -0.110779874 -0.14977142 0.09207346 0.24069455 -0.042586036 -0.110507056 0.079734206 0.1386005 -0.13739984 0.1732259 0.12834087 -0.24007294 0.033470653 0.1813644 0.12042149 -0.050374407 0.12740034 0.23686364 0.040278163 0.16893086 0.20339945 -0.03191001 -0.015723772 -0.0310989 0.03941147 0.06881723 0.26178586 0.16653232 -0.10897472 0.033619303 0.03459961 0.12918645 -0.08671934 0.15670218 0.19239603 -0.23193043 -0.11285322 0.16114235 -0.14634264 -0.12941566
713736 -0.23534076 -0.04299079 0.11408389 0.096717566 -0.034963217 -0.030192953 0.11165172 -0.20747954 0.17590687 0.067387 0.04909157 0.08512925 -0.025202718 0.11715912 0.13694146 0.17500532 -0.25917402 0.20448099 -0.0730798 -0.034359828 -0.050549828 0.041394357 -0.0043218276 -0.045502968 0.08589931 0.009169309 -0.0037308943 -0.11013538 0.07361564 -0.15069202 0.07583212 -0.1364729 -0.09268168 -0.078166746 -0.040960133 -0.026184468 -0.100526504 0.16553289 0.19383545 -0.38018736 -0.10582905 0.029819874 -0.0074355463 0.049256545 0.031247418 0.22198701 -0.30134243 -0.20549056 0.03828382 0.35978693 -0.31310967 0.07004434 0.14689088 0.09317191 0.008042654 0.19199386 0.016905656 0.23740406 0.19071522 -0.2479003 -0.21996538 -0.08973514 -0.12765948 0.08138615
712795 -0.09270357 0.08713637 -0.08424977 0.07852333 -0.02904253 0.18293443 0.08831468 -0.0017976414 -0.048991565 -0.4554988 -0.091057315 -0.10255448 -0.18171823 -0.29215616 -0.18351652 0.026509311 -0.26427582 0.3456128 0.12252811 -0.00287566 0.0027644807 0.19464101 -0.11346431 0.08861824 0.03895176 -0.093860574 0.22188176 0.19669272 -0.007942999 -0.08750491 -0.25873697 0.21230388 -0.031098478 -0.07241079 0.29826155 -0.22904427 0.34582135 0.17930618 0.10142158 0.33087113 0.17765152 -0.09550027 -0.08917422 -0.10518704 0.15881756 0.120711096 0.13454258 0.011616377 0.25512442 0.12564604 0.084620595 0.06209974 0.05492761 -0.000120309545 -0.025105646 -0.037742116 0.0638284 0.17888036 0.2422585 0.026862618 -0.061621837 0.023679636 -0.17305255 -0.17664157
713814 -0.022969754 0.06718296 0.025836699 0.21849486 -0.2331213 -0.010294302 -0.2365906 -0.083877504 0.08373437 0.007866743 -0.116337046 0.002803973 -0.20353547 0.21676794 0.12550351 -0.19683436 -0.38278225 -0.1703902 0.06956826 0.08466406 -0.121499024 -0.03836511 0.24857214 -0.20654783 -0.16142808 -0.046270147 0.06414607 -0.11428669 0.07262102 -0.23472008 -0.14586484 0.19354865 -0.09694924 -0.0919606 -0.17026249 0.09052999 0.02657212 0.359479 0.37618554 -0.009895159 0.12194382 0.062299237 0.087172635 -0.049472425 0.3596955 -0.10106463 0.17741793 -0.13610968 0.15181106 0.10445775 -0.01851695 -0.0927103 -0.112336114 0.041120943 0.03757654 0.18315525 0.04463025 -0.21109383 0.050677255 -0.03889325 -0.014960433 0.23296289 -0.072691925 0.18471631
715298 -0.06884546 0.069781356 -0.33409935 0.41954795 -0.1477405 0.14066212 0.22743545 -0.39421457 -0.05605713 -0.22967301 -0.0054394985 -0.105475806 0.039590843 0.17835583 -0.12988544 -0.227209 0.27268106 0.10731061 -0.05817085 -0.00070154096 -0.20564272 0.0020864392 -0.22141592 0.013695567 -0.07839906 -0.21623647 -0.16230685 0.2658973 -0.027201638 -0.25794762 0.021143204 0.043833163 -0.112726524 0.17818172 0.21551405 0.16051799 -0.15733396 -0.072886065 0.50671333 -0.09210898 0.11899087 0.18978088 -0.29633585 0.030047547 -0.41310054 0.07767333 0.2015517 -0.050466575 0.06411835 0.12292686 -0.12563902 -0.050726537 -0.30231783 -0.09273737 0.15447664 0.16091833 -0.06394256 0.25331554 0.20140606 0.056543857 -0.0856394 -0.12062408 -0.25910354 0.16332516
713138 -0.15293658 0.1680785 0.14312282 0.12889606 -0.12109189 0.15359592 0.08253894 -0.044158537 0.06202442 0.04725593 -0.22863077 -0.2510378 0.14789021 0.06180418 -0.44479042 0.066188775 -0.047907975 -0.042886235 0.20396541 -0.2952589 -0.17311855 -0.07200525 0.13419636 -0.1885827 0.22091976 0.19935736 0.005375426 0.25252682 -0.0812992 -0.18414289 0.16878359 -0.069108106 0.102363184 0.2802348 -0.10362126 -0.109772 -0.047266137 0.06966451 0.00044472184 0.018751247 0.13928813 0.049890783 -0.01444416 0.43630156 -0.018599235 0.09356263 0.17966868 -0.05129841 -0.19977725 -0.21459252 -0.034546476 -0.10121988 -0.23385403 0.1661002 -0.1330695 0.15665156 0.16925082 0.26215327 0.059180193 -0.063101254 -0.16813192 0.080018945 -0.3016098 -0.15594102
713563 -0.06431938 -0.26248193 -0.04791848 0.16729018 0.08266099 0.10510182 -0.1455752 0.0652086 0.15425158 0.056566413 -0.3034175 0.03516053 0.21644025 -0.15372132 0.05733272 0.014992048 -0.1586016 -0.22758974 0.07584872 -0.28165367 -0.12420404 0.11678553 -0.057157062 0.33880803 0.05930253 -0.06952513 -0.06271592 0.057803962 0.040481847 -0.21849456 -0.06703681 0.12639624 0.046579566 0.09284623 -0.13482738 -0.07499719 0.005549693 0.08556241 -0.13378423 0.1768343 -0.15142435 0.23575225 0.044823643 0.07961367 -0.03354699 -0.012901898 0.018010467 -0.26339725 0.10524808 0.02253649 -0.17974922 0.040134497 -0.27436522 0.44529295 0.13363709 0.156168 -0.020124735 -0.044215374 -0.17454311 -0.0020680577 -0.21847449 -0.028984888 -0.08782443 0.22473335
712745 0.04066243 0.42275482 -0.18909389 0.4512651 -0.04599605 -0.15900975 -0.03882184 0.090820275 -0.043063343 0.064542904 -0.048177302 -0.0644619 0.10702872 -0.11476852 0.07510395 0.031657282 -0.099956274 0.17522636 0.17461465 0.018082866 -0.008141855 0.26482224 0.12156871 -0.11886277 0.14107528 -0.02593427 -0.40343708 0.16845803 0.18603683 0.08971297 0.027693024 -0.3149454 0.1493966 0.012407883 0.1129813 -0.14714985 -0.3062606 0.062208407 0.1033086 -0.10535754 -0.11248159 0.2578218 0.061096806 -0.21381304 -0.00087620615 0.056160927 -0.006980721 -0.13130273 0.10323408 0.24274226 0.2591287 -0.048894215 0.036896992 0.007048313 -0.43987992 -0.032159727 0.16428709 -0.23950547 -0.11766791 0.19471917 -0.00036571926 0.2523236 -0.1466049 -0.027189037
715471 -0.09441752 0.110874794 -0.0937262 0.06958086 0.104965284 0.16002932 -0.38846672 -0.11078019 -0.08174932 -0.32006365 0.20756976 -0.011599362 -0.1383228 -0.16720153 0.1813535 -0.22461255 -0.17201239 0.08424637 0.472813 -0.5735533 -0.14449361 0.4598541 -0.44551536 0.6239468 0.15049022 -0.09044039 -0.34609705 0.16619535 0.051542368 -0.49503112 0.15963453 -0.3561428 0.21603401 -0.019133782 0.12307257 0.14911105 0.4768704 -0.3067559 -0.11523793 0.08217934 -0.25212538 0.21924883 0.48623857 0.39799586 0.110706486 0.33028963 -0.2041051 -0.4016337 0.033555686 0.006993193 0.4912187 0.15699866 0.037298895 0.5835037 -0.2192238 0.5133989 0.40868798 0.0690672 0.113402344 -0.04342806 -0.3442802 -0.26817244 -0.05640742 -0.11149142
713062 -0.10038706 -0.098918185 -0.1063758 -0.11249019 0.06577774 0.27607197 -0.05818851 0.20483431 -0.18346958 -0.17571253 0.094007924 0.24436927 -0.032341115 -0.46907613 0.36406952 0.10266557 -0.16009863 0.16729586 0.1630042 0.18262048 -0.13416286 0.24952953 0.23343407 -0.043845005 0.15868811 0.1785369 0.44410658 0.06249288 -0.051364124 0.052021246 0.029452225 -0.06301707 -0.037315942 -0.0166541 0.028063934 0.37376103 -0.14372818 -0.103739634 0.090282954 0.06599996 0.29084304 0.24266626 -0.056101356 0.1407312 -0.103600204 0.07873088 -0.00044775516 -0.1998088 0.11093617 0.16031507 0.14159465 -0.15404753 -0.091988884 0.34514365 -0.055852395 0.13065486 0.05694813 -0.15937823 -0.12770589 -0.08787128 -0.21144131 -0.11770428 0.04027075 0.21935098
713474 0.11804064 0.101345696 -0.033313904 0.1960304 -0.054301433 0.11800829 -0.013903342 -0.08862181 -0.053370398 0.12405964 -0.20218037 0.044786908 0.011349566 -0.29572964 0.061218627 0.152676 0.0023670238 -0.24031153 -0.18327874 0.020127738 -0.11025446 0.1299457 0.13672557 -0.06731819 0.2592116 -0.058414362 0.057391543 0.09614781 0.03856866 0.12010781 0.1006482 0.13551 -0.17191607 -0.2031248 -0.048647285 0.14710772 0.09453461 -0.02212061 0.16244517 0.10663837 0.47743484 0.32969558 0.17522165 0.004354644 0.10613134 0.035093207 0.105926566 -0.01023796 -0.13436586 0.16838616 -0.09753375 -0.026607748 -0.020878468 0.41081873 -0.06897979 -0.022021491 0.21293068 -0.0210176 0.12497845 0.012434011 -0.023734832 -0.14808957 -0.08973241 0.043016795
714361 -0.032235336 0.19878504 0.031856135 -0.02459269 -0.20795254 0.08841203 0.03467457 0.28084934 -0.009722845 0.054329794 0.26826242 0.17973672 -0.018501615 -0.2102232 -0.0917712 0.12355519 -0.08240875 -0.084671915 0.008556971 0.13272704 -0.17280701 0.0848571 0.30443153 0.0105498545 0.1832231 -0.20099454 0.4446948 -0.34227547 -0.27012628 -0.06821902 0.2716546 0.004068586 0.3014078 0.1394536 -0.117864355 -0.0745557 -0.036767755 0.28002766 0.06711139 0.07530215 0.16695014 -0.11704731 -0.140418 -0.10692664 0.095038965 0.03579605 0.21401426 0.19838966 -0.12784214 0.10942732 0.16467573 -0.07131828 -0.12261921 -0.0004031619 0.11830817 0.17431808 -0.12918963 0.018282482 0.17068277 -0.1286806 -0.027265716 -0.064365365 -0.24428888 -0.0754783
714444 -0.14523156 -0.34714597 0.0239132 0.17900398 0.22785047 0.20782162 -0.15450835 -0.12871146 -0.12715633 0.23955546 -0.030151453 -0.19220382 -0.27543926 0.20692249 -0.32434994 -0.067666404 0.113982685 -0.15611705 0.20437686 -0.1303226 -0.31063288 -0.035262156 0.109406404 0.29568195 0.06062453 0.060239438 0.3029554 -0.32515058 -0.21218364 -0.2284465 -0.2216061 0.19560473 0.21299778 0.04924744 0.017100776 -0.05721925 -0.07977191 0.07789657 0.05608332 -0.05090466 -0.15809064 0.19317015 0.05273889 -0.23587354 -0.022996427 0.24348003 0.12101436 -0.15894164 -0.11394026 0.1291021 0.002259501 -0.26323825 -0.4286121 0.36711115 -0.45217043 0.13965598 -0.10356029 -0.19350538 -0.025798064 -0.19192056 -0.31954485 0.23306963 0.22835362 -0.16211541
1376868 0.13957404 -0.08309966 0.17941795 -0.03735948 -0.11484439 0.06930858 0.14768384 0.10148803 -0.07457774 0.12269244 -0.21722402 0.030156363 -0.05203176 0.31980905 0.14449035 0.15347122 -0.057672594 0.050875947 -0.15802798 0.033847332 -0.06369447 0.19711052 -0.19527622 0.14518385 0.045551766 -0.12904873 -0.21009266 -0.13948254 0.079045184 -0.13791947 0.102066 0.022203162 0.07748839 0.2691969 -0.11868023 -0.036128975 -0.08465359 -0.05903641 -0.11676679 -0.11239622 -0.015022574 0.13378298 -0.028546765 0.035779916 -0.3336318 -0.034419816 0.10747137 -0.016850071 -0.16491875 0.40734455 0.21937175 -0.33993408 -0.43157053 0.29009637 0.09964812 -0.06300038 -0.12933245 0.09139499 -0.11531832 -0.027423745 -0.12626481 -0.2136058 -0.0014507243 -0.1335231
712834 0.087214686 0.13529362 -0.45455936 0.1250185 0.14736815 -0.07022823 0.37905806 -0.13972749 -0.1430522 0.28682193 -0.12056988 -0.064133875 0.04604478 0.0042069247 -0.12111575 -0.08574466 -0.030553147 0.07523289 0.52107936 0.17125942 -0.17545664 0.05983028 -0.07747135 -0.043217883 0.17126301 0.061568573 -0.015402343 -0.2573113 0.12887079 -0.1541007 0.1934547 -0.1302198 0.08970617 -0.078302614 -0.046890337 0.019716067 0.21689776 0.24106818 -0.03865512 -0.24112767 0.06587795 0.018981365 -0.241063 0.041513644 0.1447361 0.020421892 0.06778883 -0.30666247 -0.08624502 0.065205924 -0.0857074 0.07625913 -0.21062991 0.13071173 0.06351129 -0.14031315 0.19510972 -0.03652235 -0.082154065 -0.46478978 -0.010045064 -0.10426703 -0.08310567 0.20440066
713876 -0.1729402 -0.12805013 -0.028316585 0.18381691 -0.047015786 -0.14898533 0.20502412 -0.13986863 0.112045385 0.1922277 -0.16627966 0.19903864 -0.11214672 -0.31310108 0.30975252 0.028587524 -0.18381102 0.058329225 0.05593338 0.22035822 -0.10449605 0.31601447 -0.2574737 -0.105479114 0.084191345 0.10679089 -0.14067888 0.1567751 -0.13499588 0.20599279 0.07222988 -0.1493465 0.11671177 -0.030433616 0.014909484 0.048720054 0.13191426 0.16138807 0.25422913 -0.14663632 0.013016576 -0.004085515 -0.041148476 0.067289785 0.13836232 -0.072058246 0.021251453 0.048965365 0.03874982 0.080929466 -0.24123318 -0.0287515 -0.24605855 -0.0855201 0.36896384 -0.07843652 0.10639681 -0.009491179 0.33653176 0.12503694 -0.21025588 0.004197859 -0.032497317 -0.006343466
712878 -0.14150685 -0.035789557 0.33183876 0.013328363 -0.03268199 -0.09654782 0.28089502 -0.08947206 -0.02946373 0.27658993 0.17514591 -0.17173965 -0.13347524 -0.30404556 -0.08160064 0.078722864 -0.24053252 -0.13662235 0.2207612 0.08961515 -0.050848376 0.3120683 0.049707197 0.43618342 0.057075 0.016429696 -0.23291047 -0.01929983 0.10742438 -0.12649001 -0.32185254 -0.012516508 -0.20097713 0.09117568 -0.030965434 0.07624855 0.06772076 -0.097030886 -0.0986461 0.15782318 0.07849149 0.0085877115 0.10796225 -0.21261649 0.08375442 -0.30118367 0.087876685 0.013183087 0.02847263 0.17516686 -0.001918805 0.11465737 -0.07187968 0.1250715 -0.015887178 -0.28065863 -0.062359676 0.04362672 -0.23017143 -0.15276118 -0.21225624 -0.2191615 0.06188478 -0.035655506
712362 0.13499634 0.08430909 -0.25805372 0.0712214 0.28599834 -0.10370363 0.3329075 -0.20858647 0.23042236 0.2912934 -0.41993427 -0.36247492 -0.29509386 0.22633646 -0.005650015 -0.0021283885 -0.14864731 0.31863928 -0.023509951 -0.17864802 0.007522986 0.18876985 0.26380146 0.34155208 0.3162081 -0.017289372 -0.1696264 0.17832653 0.0505947 -0.42147768 -0.16533336 -0.22718868 0.006890706 0.12128305 -0.07892607 -0.39333278 -0.15531026 -0.09451344 0.206823 0.13051546 0.16512853 -0.052778568 -0.061658014 -0.10107868 -0.17062472 -0.1187645 -0.1003667 -0.21078083 -0.029802535 -0.045022834 0.006544284 0.011310745 -0.08419504 -0.022652866 0.15961912 -0.03891455 -0.16831195 -0.06100854 0.024373343 0.025069833 -0.027197678 -0.011642131 -0.005339795 0.2508381
714483 -0.19113216 -0.22538644 0.072401986 0.17796452 -0.16913399 -0.32069632 0.1457639 -0.13669021 -0.16120312 -0.13157235 -0.33161277 0.19795382 -0.2799686 -0.0037681146 0.23531531 -0.101610385 -0.50333166 -0.03386813 0.042541873 -0.04106857 -0.27547073 -8.578338e-05 0.039294757 0.06811018 0.37464795 0.08911879 0.09320046 -0.13184929 0.1084069 -0.18910864 0.32818854 0.05696359 0.14169233 0.14763255 0.1298077 -0.14224812 0.01730361 -0.04394791 -0.038902815 0.31734365 0.07915695 -0.20204663 0.16391116 0.31359342 -0.21438183 0.18303038 0.031595692 -0.13308805 0.1411525 -0.12613997 0.36467543 0.111060046 -0.048974447 0.0558694 -0.595414 -0.2978472 0.329743 -0.22428462 -0.020949913 -0.22577412 -0.22582501 -0.22659914 0.058140498 -0.3438979
715337 0.102330804 -0.06255551 -0.04767559 0.1618495 -0.14253405 0.091688864 0.015012362 -0.15002637 -0.001835663 0.12959981 -0.09322789 -0.45955655 0.24944675 -0.14048296 0.2478914 0.043805256 0.040622063 -0.039046343 0.073640324 -0.10659367 0.18959278 0.31234786 0.075287625 -0.17446533 0.09082997 -0.011354071 0.104823075 0.05478484 -0.03683589 -0.121183604 -0.24257821 0.08571918 -0.13161571 0.14886418 -0.3479208 0.032235418 -0.17668363 -0.14812261 -0.15173721 -0.36714378 0.07149106 0.11847232 -0.20101912 -0.09141303 0.09783998 0.3668714 0.11554251 0.06578677 -0.10471134 0.10188309 -0.0064901575 -0.15845132 -0.25272438 0.279454 0.12027206 0.0061016544 0.080705404 0.046470933 0.27487773 0.047204003 0.04224426 0.24353157 0.36155573 0.33036664
713489 0.06829383 0.23190202 -0.011105787 -0.086700164 0.009548413 -0.007623554 -0.3003338 -0.09964507 0.11950208 -0.084919065 -0.1070851 -0.023398016 -0.055601947 -0.011842369 0.08781712 0.16770723 -0.40774477 -0.18734683 -0.14113986 0.05103002 0.09569527 0.33326218 0.08494322 -0.10843748 -0.06638169 0.048601445 0.019823432 0.19257171 -0.059833165 -0.054498013 -0.00030146164 0.24419087 -0.185297 0.0017880988 0.02041049 -0.19489796 -0.11924564 -0.048422236 0.13530616 -0.1702211 0.003981722 -0.08294763 -0.0356581 0.065321326 -0.006484517 -0.25440118 -0.20819071 0.039753206 -0.1018156 0.1617142 -0.36144224 0.07206833 -0.18276314 0.426568 -0.23105152 -0.121391356 -0.08645818 -0.009044294 -0.15137044 0.11344398 0.044414002 0.06340751 0.025270253 -0.028320726
714191 0.09726203 -0.017441178 -0.14333926 0.083935246 -0.094740674 0.26869294 0.06571997 0.012533923 -0.22897406 0.14146768 -0.12749612 0.07460256 0.041429203 -0.10846799 0.14002001 0.2179737 -0.0330355 -0.044545386 0.14736639 0.2041521 -0.071404964 -0.008316189 0.18066604 0.07204375 0.13349304 0.25184742 0.12695314 0.16932002 0.101129025 -0.061210264 0.2095194 0.032125067 0.24859051 0.08535105 -0.01247779 -0.1558271 0.07953101 -0.14840172 0.12227309 -0.036810644 -0.060214557 -0.114809714 0.23363902 -0.006110487 0.10471111 -0.05090651 -0.12897436 0.010708661 0.01969395 0.27225325 -0.05158118 -0.0825344 0.0029076023 0.113293454 0.14800265 -0.031761747 0.13967621 -0.00861863 0.33592322 -0.13756528 -0.24928455 0.101690374 -0.007884563 0.074957244
713725 -0.049360313 0.09737898 -0.11021185 0.17196132 0.23981668 0.022122394 -0.04785077 -0.16036053 -0.050117183 -0.12702975 0.017145917 0.04305539 -0.21404676 -0.34184963 -0.16363625 -0.13915609 -0.36110413 -0.107108496 0.08351019 0.19018877 -0.027055265 0.15548758 -0.21394655 0.02293917 0.008235605 -0.05662168 0.1546915 -0.100896224 0.18793125 0.18860537 -0.11637818 -0.076212876 -0.19268182 -0.15598051 -0.1250382 -0.10354922 0.21097726 -0.06244765 0.16840087 -0.056914918 -0.06458195 -0.10768944 0.013198693 -0.25631332 -0.043531246 0.1056435 0.0014602063 -0.33568934 -0.038578928 0.4691827 -0.01919501 -0.12442328 -0.017642105 -0.07385289 0.14787503 0.011900222 0.04687131 -0.16584994 -0.2597129 -0.2398375 -0.024687676 -0.13971038 0.002099468 -0.18435207
714717 -0.17370903 -0.050404627 0.1198409 0.004361084 -0.14839141 0.056746297 -0.14160395 -0.45505276 -0.26236266 -0.25359738 -0.2182147 0.09378751 0.16820161 -0.33806735 -0.10954711 -0.14907809 0.052603047 0.07080745 0.25611326 -0.12880576 -0.1262051 0.088343345 -0.18840419 -0.080599844 -0.13033925 -0.16798772 0.09947114 0.05003756 -0.14301653 0.12674484 0.20470582 0.29676843 -0.0816974 0.14706814 -0.028964713 -0.07928399 -0.022288248 -0.25037107 0.12333805 -0.035365596 -0.102643006 0.026219442 0.14093672 0.24460319 -0.10674621 -0.007979289 0.055998776 -0.26168007 0.15514499 0.19173265 -0.069372036 -0.05159132 0.031075917 0.13671112 -0.36154065 -0.024019165 0.0717858 -0.22250867 -0.10900206 -0.25711775 -0.26201305 -0.07470327 -0.29118136 0.32286927
713256 -0.09733145 -0.2610545 -0.09567075 -0.028002841 0.18819973 -0.28259155 -0.055084612 -0.029051155 0.16362037 0.20035557 -0.104273826 -0.057896756 0.04867296 -0.031458765 0.013304342 -0.19134901 -0.18428148 0.11912552 0.20572819 -0.1892279 0.08833032 0.1384942 0.16799437 0.10536955 -0.29005608 0.050371442 0.0050437106 0.012284643 -0.1643311 -0.085397914 -0.21175101 0.13469037 -0.1401054 0.10951021 -0.055607248 -0.088530764 -0.030686263 -0.02676375 0.2744 -0.27956054 0.12753572 -0.16729647 0.015647741 -0.04682187 0.08802043 0.14115788 0.04888468 -0.043417834 0.19335043 0.21933086 -0.1963814 -0.08636795 -0.062463474 -0.11059418 -0.21978496 0.0054771947 0.1731095 -0.15400341 -0.015322153 -0.022087598 -0.24930277 -0.11781016 -0.16220501 -0.01081329
713224 -0.109785445 0.016722696 0.4892315 0.26090118 -0.13007365 0.01876811 0.08966007 0.07945405 0.25587088 -0.08188441 -0.032000143 -0.11809838 0.26827478 -0.14802897 -0.0020726307 -0.02929681 -0.26198024 -0.022587886 -0.060812935 0.23603392 -0.020190911 0.073071614 -0.043305155 0.010671407 0.031805977 0.15006952 0.06477965 0.052724246 -0.078301705 0.026793823 -0.10987602 -0.07930684 -0.16043977 0.070274554 0.012470491 -0.16343349 0.003122481 -0.23676704 0.14057197 -0.033418205 -0.08194748 -0.12718843 -0.15539312 -0.25663105 -0.013757474 0.21831098 0.017535672 0.07111197 0.2029548 0.13948634 -0.015850173 0.121650755 -0.04321115 0.004721537 0.22294918 -0.10166544 0.23761687 0.16439396 -0.018989058 -0.0126420045 -0.083794326 0.067098506 -0.15486354 0.060745902
714265 -0.13344143 -0.21689673 0.49394006 0.14454162 -0.06031659 -0.12690796 -0.004244254 -0.03980938 -0.07127806 -0.17474164 0.18950252 -0.27487323 0.010461924 -0.09918303 0.14876868 -0.00020731425 0.08441429 -0.07246699 0.07457334 0.25806165 -0.09856345 0.20233741 0.28864464 -0.0729311 -0.1904623 -0.13042824 -0.27005556 0.42531985 -0.07909449 0.007836788 0.05057481 -0.10313503 -0.0700784 0.037627514 -0.2941208 -0.006624432 0.03317191 -0.263479 0.14177297 -0.08461886 0.23263744 -0.07704494 -0.19769832 0.02197049 0.059479848 0.06720646 -0.056479536 0.12471653 -0.20191212 0.19035593 0.14851788 -0.02798675 -0.26360074 0.029346969 0.13024366 0.13526861 0.038900647 -0.07605411 0.005999256 -0.059341714 -0.080091804 -0.3034884 -0.058384247 -0.020785665
715026 0.31958023 0.016950835 0.18413 0.117788516 0.005437999 -0.09074922 0.22295468 -0.07405987 -0.05804968 0.26717162 -0.41964975 -0.006517025 -0.02781609 -0.13314633 0.11036378 0.0094693145 0.03949064 0.21455145 5.098296e-05 0.1430091 -0.042760883 0.23609415 -0.0959175 -0.19917169 0.071425185 -0.07833763 0.124802716 -0.18595484 -0.2311083 -0.025227563 -0.22005239 0.044871114 0.097389266 0.09343169 -0.33436412 0.20059784 0.3252991 -0.08770849 0.10295879 0.164541 0.2141236 -0.0019123271 0.04437214 0.1561952 0.14863458 0.01223144 -0.13574812 0.16959354 0.07478804 0.20506513 -0.018391158 0.03846004 -0.055789016 0.051421713 0.1088065 0.026402043 0.06355037 0.20420644 -0.25399122 -0.07804268 -0.22706772 -0.040123854 -0.022939367 -0.18391831
713070 -0.13321246 0.12707601 0.076586574 0.34674653 -0.21805465 -0.14531794 0.02323369 -0.21469726 0.04569149 -0.017288962 -0.23232457 -0.23543365 -0.2035031 -0.20536888 0.058707118 0.01252884 -0.13544257 -0.18720287 0.13873357 -0.10531309 0.14884573 0.08192393 0.04958829 0.07567626 -0.061461017 -0.24002995 -0.10277252 -0.14883392 0.15256788 -0.13239852 0.09314028 -0.12933573 -0.06578381 0.16087775 -0.16142319 0.12087515 0.003972985 -0.08226416 0.3998983 0.14560664 -0.1113128 -0.078595564 0.23021719 0.1732437 0.05952459 0.21479759 0.0362086 0.2016823 0.20587729 0.14853337 0.11806521 -0.07592949 -0.012368378 -0.038327437 -0.05326133 -0.1689881 0.0062833386 0.14678088 0.13521431 -0.0044103144 -0.21059659 0.29484698 0.06800792 -0.22309785
713284 -0.1561078 -0.031781003 -0.25114074 0.12354938 -0.043807924 0.024300987 0.10742674 -0.022593413 0.006886415 0.043501843 0.25868708 -0.09252378 0.26415727 -0.11083588 0.111401245 -0.049592037 -0.28030783 -0.1296155 0.033071008 -0.05889597 -0.018308079 0.08061518 0.20475388 -0.12947801 0.08151667 0.093419515 -0.076831035 -0.063954726 -0.13396043 -0.06948114 0.10078416 -0.08801665 0.105352074 0.08448791 0.14215052 -0.17744945 0.004860105 0.029760512 0.22395197 -0.008280474 0.11127928 -0.11331454 -0.016513413 -0.2953266 -0.03869452 -0.037213836 -0.21951228 0.14029 -0.21085839 0.25633526 -0.1912499 -0.13702226 0.17883518 0.081896015 0.08538727 0.12609476 0.0084040295 -0.06695046 0.06453405 0.24578734 -0.09622801 0.10633185 0.027656883 0.03237358
713366 0.015344563 -0.04167142 -0.24215071 -0.0010985992 -0.04299387 -0.026279509 -0.087278605 0.031607665 -0.017496476 0.10978256 -0.13338974 0.092738025 -0.031300608 -0.10400688 -0.11756422 -0.008523112 -0.30214787 -0.053803403 -0.000760292 -0.2535054 0.023623606 -0.052840095 0.19252487 -0.018891044 0.06570087 0.030697478 0.45381546 -0.024071706 -0.0840602 0.06570717 -0.030322013 -0.23980561 -0.29627642 0.15693122 -0.103723615 -0.112406306 0.011493878 0.030498281 0.47033584 -0.053773947 0.12479147 -0.085024275 -0.06439481 -0.15418868 0.020168278 0.03233656 -0.03315677 -0.10713265 -0.22611216 0.14846951 -0.033073314 -0.009887139 -0.091937214 -0.14817905 -0.15152422 -0.030384025 -0.060019255 0.06636205 0.28311846 -0.1537199 -0.12112045 -0.19102372 0.048114896 -0.22204545
713429 -0.04338474 -0.34489918 -0.04512599 0.19037677 0.07203342 0.09494505 -0.076867945 0.30152097 0.03844398 0.19087924 0.04414563 -0.007322361 0.051769387 -0.2567413 0.0022581806 0.06734729 -0.21129759 0.04580282 -0.12533277 0.00736249 0.09927101 0.0030052147 -0.0010209627 -0.18339734 0.10553371 0.1517418 -0.025835972 0.07351753 -0.14785087 0.089209355 0.10389513 -0.11957729 -0.06141558 0.042798143 -0.33357736 -0.009287541 0.16029996 -0.008513552 0.24680069 0.09208975 0.10710911 -0.2491068 0.13753778 0.0038505758 0.060909756 0.12649713 -0.114749886 -0.08732338 -0.24208902 0.2246771 0.024041612 0.021844387 -0.13655962 0.17457521 -0.016181707 0.14660008 0.33733204 0.040050987 -0.10722471 -0.0356927 -0.12769608 0.06519324 -0.026566625 -0.15259445
714258 0.2028902 0.1896697 0.25530177 0.17066555 0.14993256 0.07664525 -0.014950178 -0.015430514 0.01627281 -0.30684724 0.06285295 -0.17424248 -0.12754604 -0.25463864 -0.22723493 0.30393943 0.0498883 -0.32747543 0.13788463 0.26505154 0.041407183 -0.006726459 0.15835564 0.1718267 -0.036039848 0.19208007 -0.2633016 -0.23503059 0.06979464 -0.084261626 0.06715743 0.2904719 -0.054668386 -0.33420983 0.18412764 -0.24512975 0.14539975 0.013432224 0.21754338 -0.21319881 0.15775251 0.002417597 0.13453332 0.27239847 0.12396329 0.03359849 -0.14532728 -0.052013595 0.12993401 0.31914863 0.29471597 -0.16843212 -0.2454889 -0.093984894 -0.045782834 0.0388133 0.024110092 -0.05155068 0.12586299 0.2493088 0.043543927 0.17086345 -0.26078597 -0.23176916
713294 -0.0637915 -0.08134926 0.031838097 0.060725316 -0.010649195 -0.12311396 0.026740557 0.022002885 0.16416185 0.18965864 0.1845411 0.017139805 -0.07937075 -0.25737676 0.1393746 0.052671097 -0.17882103 -0.06305625 0.0032063758 -0.07978495 -0.084487624 -0.051578674 0.20554762 0.029001685 0.07470274 -0.098388016 -0.017218998 0.054832887 0.07949136 0.111061476 0.046982244 -0.1989963 0.039746825 0.20261966 0.18433315 -0.20830552 -0.20443413 -0.0017688944 0.21362609 -0.07443328 -0.18122424 -0.22014219 -0.13033825 0.019501306 0.1300068 -0.058252145 -0.19266409 0.080549955 -0.06213966 0.35006896 0.03886151 0.04410224 0.15645245 -0.0859531 0.11533228 0.25640872 0.2912288 -0.014406609 -0.082716584 -0.09305564 -0.068530135 -0.039128277 -0.20308736 -0.08620236
713307 -0.019921819 -0.25376838 0.09385616 0.028135227 0.15673247 0.03415931 0.033402577 -0.07193904 -0.31659055 -0.039305177 -0.050859537 -0.07412764 -0.07341941 -0.24695712 0.11239028 0.117104724 -0.29162967 0.049972687 0.027926983 0.15859316 -0.088691786 -0.067508675 0.10844042 -0.041551404 0.29760882 0.047309026 0.20243894 -0.011488358 0.2025231 -0.11600322 -0.04940432 -0.038634334 -0.006301165 -0.009371019 0.2233373 0.029252784 0.11230287 -0.13526252 0.2817341 -0.09523364 -0.00859428 -0.24319115 -0.058420762 0.02164411 -0.008831378 0.027457658 -0.16954114 -0.26209024 0.10720056 0.3082438 0.11786913 -0.0024170263 0.12844029 -0.08909141 0.1441816 0.10226779 -0.22156937 -0.10685363 0.20345601 0.056565095 -0.17611997 0.045410413 -0.094940215 -0.000452208
714654 0.13972501 0.23743376 -0.3137271 0.14351487 -0.10591702 0.0913976 -0.13971914 -0.25583372 -0.14485559 -0.067771494 0.2404685 0.35844567 0.4042773 0.016376982 0.055024117 0.07366367 -0.2050086 -0.13903 0.12820119 -0.26984638 0.08607401 -0.008733166 0.15853074 0.21892932 0.09313574 -0.22518235 -0.10558487 0.20604695 0.13910316 -8.331693e-06 0.169518 -0.109730974 0.27396333 -0.1189407 0.014414947 0.10223146 -0.04237725 -0.16283664 -0.06379426 0.11076403 0.11633533 0.029052556 -0.1873892 -0.23159249 0.0793157 0.26908663 0.12810326 0.05204829 0.033550933 0.24535258 0.32911202 -0.39898017 0.09634586 0.4180445 0.17541674 0.15432811 -0.11415809 0.2382933 -0.22956935 -0.22551838 0.122719064 0.33095428 0.20972958 -0.12074911
713056 0.10677314 -0.013263556 -0.03244331 0.25801733 -0.13175625 -0.33644462 0.043725085 -0.07802233 -0.1610888 -0.07591358 0.1546898 0.04481832 0.19833362 0.034908034 -0.07010667 -0.24462928 -0.15049034 0.09415377 0.058962062 0.04806764 -0.19744197 -0.2692351 -0.087726116 -0.2850707 -0.07265416 -0.27609977 -0.110063985 -0.026848422 0.15419348 -0.03366473 -0.029217001 -0.24834001 0.06555532 0.1029194 -0.12068635 -0.012547529 0.003687068 0.031115001 0.0013778405 0.525581 0.16989388 0.021816004 -0.07732782 -0.14002763 -0.0051592467 0.17180903 0.050145306 0.06753338 -0.0124229165 0.042098485 -0.18438052 -0.3063073 -0.52034104 0.087049015 0.028086748 -0.14399579 0.058160286 -0.19607729 -0.017075052 -0.11492345 -0.062409855 0.41017896 0.24257144 0.11774719
713743 -0.13747789 0.10823926 0.008721727 0.01334603 0.1788873 0.14271815 0.20778726 0.042183876 0.17879069 0.08993127 0.185448 -0.4191406 0.25137797 0.06054479 -0.16560014 -0.00118021 0.099918015 -0.017178403 0.03239348 0.047386076 0.07008291 -0.01695242 0.07256847 -0.14175922 -0.01641749 -0.044560228 -0.086434074 0.01836941 -0.06680967 0.32002977 0.08783257 0.21461956 0.05815688 -0.08028907 0.11609363 -0.22919783 0.20188451 -0.010319231 0.2226737 -0.105338074 -0.18856364 0.039261732 0.07750831 -0.1456341 0.40568185 -0.07025003 -0.010556159 -0.112468466 -0.02807511 0.41372603 0.07451612 -0.13155662 -0.37830892 0.16733767 0.0059180036 -0.085173264 0.14786716 0.092142455 0.14694333 0.03771878 -0.10606596 0.019197151 -0.1837143 0.08985014
714550 0.035442423 0.29382548 -0.39744198 0.5024902 -0.09062527 -0.053275775 0.45150027 -0.01416591 -0.11954229 0.18094797 0.0013907553 0.26561674 0.24926297 -0.19711381 0.12141074 -0.674251 0.53287697 0.13005671 0.19937289 0.38676134 0.19734195 0.08630344 0.17787643 0.2730565 -0.113021895 -0.23980626 0.10996993 0.09307058 -0.13806713 0.5116492 -0.012337658 -0.2078607 0.17777435 0.3466857 -0.19390939 -0.033670273 -0.18768078 0.7951485 0.043258063 -0.20721069 -0.054312058 0.03468402 0.061484277 -0.09914804 -0.018212609 0.11769714 0.24640617 -0.2728428 -0.2548202 0.2538617 -0.20314868 -0.37844035 0.03532791 0.32272917 -0.19981572 -0.061308164 -0.122300126 -0.15934649 0.15491082 -0.06505265 -0.3510524 0.35884896 -0.17740445 -0.23378125
715318 0.08664207 -0.13935769 -0.067519434 0.089461006 -0.033072725 -0.034061927 -0.04137722 0.04841285 -0.27691945 -0.04154112 -0.37127367 -0.12806463 0.20936345 -0.022316074 0.31341 0.20744893 0.36950803 -0.18234253 -0.11241041 -0.114535525 -0.21187967 0.07318467 0.27781758 0.07748665 0.35416204 -0.13959308 -0.28321522 -0.40482906 -0.18318614 0.2504561 -0.27568808 -0.34643102 0.11939759 -0.2728015 0.16950235 -0.2378957 0.24495332 0.090547 0.13766325 0.12109928 0.32245952 0.31276712 -0.04340588 -0.1626123 0.11659042 -0.10320299 -0.15659522 -0.08766774 -0.28787795 -0.07155473 0.04411149 -0.14719315 -0.4056082 0.49749756 0.10679039 0.06657915 -0.12188141 0.11514378 0.15086539 0.24636868 -0.018243669 0.059047673 -0.15616848 0.22960141
714686 0.011887405 -0.032518033 -0.09330942 0.120907865 0.0034810833 -0.065076575 0.3724419 -0.0469666 -0.04981123 0.030508617 0.028795091 0.042365465 -0.2566326 0.016135579 0.31366104 -0.10196268 -0.26369992 0.10701877 0.05501818 0.0014756114 0.06114538 0.27256706 -0.11755428 0.20380174 -0.0765285 -0.33650815 -0.20066683 -0.28477296 0.04715602 -0.07097242 -0.029774493 0.08136745 0.06356177 0.16029602 -0.27100945 0.04948862 -0.019974569 0.05201654 0.37892187 -0.12961204 -0.08203918 -0.0981192 0.23140438 -0.4499897 0.24039638 0.444939 -0.062237807 0.2458914 0.24538653 0.08958773 -0.01724691 -0.03666009 0.09369263 0.29056627 -0.11080563 -0.13158283 0.12763287 0.0707921 0.0148624815 0.013933194 0.11025427 -0.014908831 -0.18296883 -0.04434807
714752 0.18734297 -0.3372824 -0.21502827 0.25561592 -0.032841317 0.07545248 0.20518309 -0.146146 -0.09859013 0.28495762 0.30823106 0.12745398 0.20508932 0.10388613 -0.3793436 0.08733154 -0.120948434 -0.021525217 0.13969854 0.076039806 0.2938651 0.017904663 0.16568577 -0.0801673 -0.10051729 0.20253167 0.005085152 -0.19991505 -0.2667666 -0.28060925 -0.20133954 -0.15301235 0.072119385 -0.16116871 -0.0832349 0.080395855 -0.2736747 0.006076594 -0.0061356323 -0.09533964 -0.00061610405 -0.16756465 0.19702694 -0.19148478 0.2244785 -0.039987944 0.060013026 -0.34645417 -0.011427279 0.27794358 0.23553258 -0.03772538 -0.050408073 0.10170186 -0.2676519 0.032806154 -0.04096342 0.20289913 -0.26035863 0.17083462 0.07305755 0.34527335 0.061182648 0.117917545
715647 0.33477604 0.55627054 -0.36069855 0.21404323 -0.014619046 -0.02476007 0.26695037 -0.15373693 -0.02511631 -0.16017307 -0.14035144 -0.051239774 -0.09129766 0.17894003 0.015671268 0.16382667 0.2369857 0.26021868 -0.05718594 0.07367462 -0.27688348 -0.25440982 0.13251515 -0.08571406 -0.09940319 -0.21489494 -0.020175105 -0.27386308 0.275555 -0.4030936 0.6039794 -0.12713246 0.1510775 0.18815073 0.13646181 0.17368782 -0.28033578 0.17444661 0.13697045 -0.24278972 -0.17057458 -0.37671864 0.21513791 0.5878403 0.09248544 0.3234171 0.05212028 0.08333301 -0.07539087 0.231463 0.08099567 0.12734593 0.015772263 0.6858786 0.062731616 -0.11412957 -0.17599323 0.102367885 -0.22575034 -0.4174065 -0.17222281 -0.05559672 -0.022419868 0.2960944
712079 -0.03098209 0.12724188 -0.09817213 0.33483112 -0.035541058 -0.19629575 -0.13687558 0.67720026 0.08683573 0.30323237 0.20327884 0.10209394 0.46857175 0.31652728 0.009330636 0.1823178 -0.26990718 0.67333674 -0.25813 0.14578137 -0.40153575 -0.16755854 -0.39292958 -0.16736494 -0.37600008 -0.025338642 -0.023492087 -0.099813774 -0.15462144 -0.10305213 0.0076718177 0.49530265 0.1207121 0.3604785 -0.20260444 0.31732133 -0.2027809 0.4604463 -0.44768187 -0.37274346 0.036535665 0.35324937 -0.5418698 0.09669327 0.14677523 -0.2939539 -0.28924873 0.084581986 0.34112486 0.7097675 0.36243978 -0.773181 0.24719948 0.24462865 -0.20844878 -0.21593164 0.19764903 0.025142718 -0.0116793355 0.017306454 -0.18036442 -0.10745 -0.3709301 0.06802346
714985 0.010955721 0.2197844 0.3908754 0.08956436 0.019389104 0.15734857 0.025841078 -0.15574306 -0.028061075 0.06581622 0.31252122 -0.09684579 -0.24071129 -0.08722464 -0.17194447 -0.047514025 0.16329934 -0.055827983 -0.06864174 0.26759088 -0.23094985 0.047994606 -0.27731678 -0.18132685 0.3049522 0.0051530637 0.2460594 0.16660398 0.19310299 -0.13493781 -0.16591096 0.29844335 0.16182527 0.34023806 0.20576385 0.116914295 -0.08068411 0.080807686 0.19072948 -0.16699286 0.12825929 0.16023389 0.24078661 -0.19043648 0.0642232 0.27520955 0.019629918 0.12822007 -0.4150186 0.32454538 0.19695029 0.13056158 -0.24913566 0.26173383 -0.009608852 -0.12141253 0.06413099 0.051293686 0.16104768 -0.26088983 -0.056369208 0.48432854 -0.14991732 -0.20362705
714860 0.18765159 0.019991627 -0.03214708 0.03972109 -0.3916757 0.0030391691 -0.023794008 -0.13508454 -0.061481446 0.1326806 -0.16411756 -0.31538343 0.23932427 0.32635537 0.2513308 -0.060293794 0.115396 0.16461048 -0.095477074 0.007860639 0.113589376 -0.054062583 0.20394638 0.28861016 -0.2782352 -0.2389915 0.16112031 -0.061993334 -0.06375092 -0.050292358 0.128141 0.13084136 0.23229662 -0.1526659 -0.3137936 0.073989935 -0.09196309 0.24606703 0.2345132 -0.015843356 -0.21160257 -0.26204503 0.23440495 -0.041368376 0.15180853 -0.15047854 -0.13830265 -0.2462002 0.09378153 -0.041480582 0.0051641576 -0.044635728 -0.47925714 0.37098157 0.18471833 0.122475825 0.42485482 -0.17699485 -0.22728787 0.14303662 -0.19690365 -0.08723431 -0.24880584 -0.17099768
712753 0.20910637 0.22427426 -0.32298887 -0.080124035 -0.13365908 -0.03728073 0.1245304 -0.2531967 0.10965585 -0.14445479 -0.13751619 -0.30623302 -0.032204412 -0.043811716 -0.028947592 -0.14817873 -0.08800369 0.08729456 -0.02298158 0.16977893 -0.312798 0.01698335 0.07366241 -0.12411249 -0.028597549 -0.023596298 0.27796063 -0.308168 -0.0052028913 -0.196346 -0.07244182 0.53822 -0.1610721 -0.115466446 0.13452643 0.18975343 -0.12598066 -0.044123664 -0.18263909 -0.10460077 0.04231435 0.0044822176 -0.09790213 0.02697989 0.059566338 0.028075779 -0.0071300436 -0.17409359 -0.24622723 0.25102085 0.30031458 -0.026529372 -0.109470256 0.27234322 0.34326747 0.1149716 0.059309013 -0.10369592 -0.11502346 0.06592403 -0.26823106 -0.12226505 0.093714386 0.28341264
713346 0.22411121 0.014857445 -0.09846373 0.11163761 -0.109728426 -0.12150299 -0.08019033 0.1664224 -0.13718978 0.0017355679 0.026522914 0.19756356 0.052111983 -0.19891211 0.054056082 0.058945566 -0.17325032 -0.0771199 0.013651502 -0.0534764 -0.34652245 0.015595703 -0.07762642 0.13572365 -0.024255656 -0.12577067 0.101763785 0.31926534 -0.22893624 0.013008895 0.07606955 -0.08601916 -0.12990835 0.09568904 -0.20022081 0.10375745 0.01682587 -0.009352631 0.08553578 -0.19578202 0.040373728 0.08680738 -0.025467375 0.16579638 0.007681678 0.11644458 -0.06449973 -0.04199735 -0.039528787 0.36758623 0.13325493 0.019621834 -0.06268724 -0.10950442 -0.09920085 0.038032826 -0.020067312 -0.04771644 0.27706096 -0.1032796 -0.12342532 0.18328033 -0.06303356 -0.1691922
714173 -0.011991411 -0.43190044 -0.07395123 0.13014235 -0.2488019 0.19830637 -0.14126241 -0.07599573 -0.07958227 -0.10479284 0.122178815 0.26482314 -0.03374359 -0.009494104 -0.2708117 0.12722047 -0.2290658 -0.03950784 -0.20090108 0.5315474 0.023631303 -0.092282854 -0.050555773 -0.3193474 0.09723771 -0.016846728 -0.13532178 0.3329656 0.007102689 -0.029562434 -0.16784935 0.006382597 0.0073569682 0.19765596 0.0096165305 -0.04243163 0.014244061 0.13321584 -0.019845942 -0.19096695 0.07333154 -0.07761109 -0.1119446 -0.27514815 0.14108466 0.16093676 0.005060459 0.07736352 0.012226221 0.16502075 0.15489277 0.039554656 -0.32216728 -0.08321668 -0.001868525 -0.13515809 0.109703 -0.18975343 -0.19942988 -0.11882308 -0.14646249 -0.03968467 0.01625988 -0.117171325
713378 0.017658282 -0.052674856 0.13424644 0.07150974 -0.19227187 0.025301032 -0.091855064 0.05748179 -0.020684868 0.13813007 -0.020791119 -0.00039073126 -0.12363818 -0.14110707 -0.0675024 -0.033423197 -0.30397403 0.043509234 -0.13168024 -0.28586113 -0.04178057 0.14226803 0.17452243 0.053561375 -0.06303573 -0.03886302 0.26150265 -0.10269564 -0.07258537 0.11547473 -0.045528565 -0.18446867 0.08306757 0.16824464 -0.096889414 -0.20334344 0.104888104 0.17689301 -0.042632967 0.03487997 -0.095426515 -0.13486512 0.1788995 -0.14779074 0.14380552 0.1801349 0.2300324 0.30987746 0.17301242 0.46968183 0.12242516 0.0647732 -0.049870707 0.14880754 0.042939357 -0.091660246 -0.107448734 0.20723118 -0.0033629886 0.26846966 -0.11369014 -0.07156638 -0.042923696 0.14134689
713020 -0.034114107 -0.07359343 -0.021463998 0.08663285 0.13533458 0.21456447 -0.105283536 -0.19987795 -0.0714902 -0.30279845 0.0006622773 -0.11720035 0.09736169 -0.17703539 0.12974066 -0.16786833 -0.17789975 -0.24709874 -0.050589696 -0.0987589 0.13485403 0.2478743 0.103867844 0.04384959 -0.16703263 -0.016042955 0.31830153 0.27657005 0.11950836 0.083239496 0.10156002 -0.11910654 0.035609797 0.14958608 -0.023702085 -0.21164998 -0.2559805 0.29961887 -0.007441707 -0.21387069 0.16338162 0.008678741 -0.14872661 0.021566508 0.3116086 -0.1564907 0.19855374 -0.07400242 0.039416675 0.37907454 0.0764639 0.01675748 -0.071915545 -0.09804558 -0.1750728 0.5007565 -0.036926232 -0.0076055448 -0.27024353 0.0033467682 -0.15141152 -0.2688101 -0.21394052 0.19141099
712871 0.074887685 -0.054524224 0.22311515 0.45668185 0.11480707 0.08034765 0.08351407 -0.10503882 -0.06415442 0.18700416 0.07089474 -0.05699354 0.0077033467 -0.0502952 -0.038752265 0.13864246 -0.037282072 0.27852437 0.08664223 -0.16508557 0.1151243 -0.021249132 0.07125643 0.31613 -0.21053821 -0.018922966 0.31997553 0.22808015 0.008418934 -0.1652673 0.018151566 0.08792863 0.21464917 0.10088727 -0.19981624 -0.27026573 -0.05363222 -0.04766721 -0.010655928 0.15496686 0.0221994 -0.12386727 -0.26887286 -0.17383464 -0.012844602 -0.020780489 -0.1469665 -0.049918305 0.00047819503 0.079715006 0.110192925 0.0374708 0.09779338 0.26417765 0.059438094 -0.32303005 -0.03981748 -0.10629362 -0.051973414 -0.1573997 -0.12980852 -0.11694282 -0.10076417 -0.035781946
712788 0.032595046 -0.100212656 0.08363836 0.06562365 0.07192766 -0.22889608 -0.06463333 -0.10076455 -0.023028407 0.104294196 0.0028730924 0.20539816 0.034683518 -0.07557114 -0.14111243 -0.10745838 -0.26737642 -0.07560843 -0.005285042 -0.013589551 -0.27834624 -0.091343075 -0.058354467 0.031230653 -0.13463424 0.015002775 0.088767 0.06665987 0.19406033 0.033820912 0.024524389 -0.055352554 -0.10873595 0.26261997 0.17753047 -0.116056204 -0.010029471 0.16256994 0.039603557 -0.0022675695 0.057120442 -0.15846573 0.0504226 0.16430244 0.10966608 0.0541909 0.09801323 0.18334791 0.077975184 0.35648635 -0.15551627 -0.16489647 -0.036817364 0.084213525 -0.039122712 -0.17828967 0.100227244 -0.054372013 -0.34866706 -0.16175516 -0.024405256 -0.1490759 -0.08532659 0.14382932
714545 -0.102641836 0.23091896 0.023804516 -0.066489376 -0.03212219 -0.2172502 -0.12907729 -0.16210543 0.078954086 0.12441444 0.0363863 -0.25195655 -0.024338987 -0.045875244 0.18468568 0.1703739 0.0074356003 0.052728787 0.03771967 -0.29736722 0.08681763 0.13702995 -0.07747043 -0.14971016 0.19190262 -0.10728172 0.03534582 0.07792409 0.10539439 -0.22075567 -0.028842451 0.15899901 -0.043959405 0.008082679 -0.20915835 -0.21819873 -0.16645016 0.14738034 -0.03884912 -0.00020215775 -0.044670347 -0.19478156 -0.07300693 -0.06530393 -0.26719067 0.050698124 -0.24315025 -0.27268896 -0.2860397 0.11996102 0.07100139 0.25553924 -0.1738667 0.4771739 0.056305133 0.078672156 0.099671446 0.13472797 -0.14447014 -0.2928125 -0.010535038 0.1582838 -0.28069174 -0.06508748
712761 0.10676632 -0.110764876 0.13079825 -0.052254044 0.07651243 -0.31409875 -0.16480531 -0.23982878 0.04115151 0.2044273 -0.026235731 0.2420263 -0.09093841 0.118212625 -0.11537379 -0.026627975 -0.07587578 0.34775132 0.018712953 -0.068468496 -0.040392168 0.2040415 -0.03939496 0.3040111 0.38109845 0.041695308 -0.05659951 0.2540932 -0.05342945 -0.286618 -0.21704277 0.18412979 -0.16848472 -0.19020134 -0.21263291 -0.17783408 -0.02429892 -0.19484507 0.04620176 0.1914177 0.08344522 -0.065706745 -0.16740862 -0.30174392 0.11298121 0.09087534 -0.03168751 -0.08897073 -0.28761005 0.1036477 0.08003325 -0.17891654 -0.34492657 0.18677083 0.16036318 -0.20562297 -0.055910822 -0.461565 0.033657838 0.36160356 0.17487809 0.11926718 0.040782716 0.34050962
712496 -0.060135804 -0.083881415 0.17768136 0.039324947 -0.025722379 0.2986336 -0.013937082 0.01836422 0.010800873 -0.11735869 0.017350242 0.0011072017 0.08526162 0.11397874 -0.20385067 0.24466357 0.098926686 -0.021282228 0.22475529 0.25553522 -0.15673126 0.19573815 0.37535787 -0.113638856 0.26921135 -0.017066952 0.1286055 -0.10080838 0.060551815 0.088132694 0.011359708 -0.01130411 -0.08995907 -0.15864953 0.17752686 -0.066905975 0.06486279 0.034179993 0.10064274 0.026049398 0.19409408 -0.13007797 -0.024179649 -0.09594831 -0.045655064 -0.028550822 0.22088225 0.06258664 -0.0932465 0.2667544 0.3261454 -0.24273454 -0.17271575 0.20412908 0.17428307 -0.13563953 -0.064748265 -0.28369516 0.091381505 0.14664443 0.032114837 -0.017027225 -0.23763713 -0.15206277
714310 0.039097518 -0.17990834 -0.1249449 0.041269902 0.19018303 0.26543593 0.023479065 -0.029920187 0.27480972 0.120192066 0.16909127 -0.0149488645 -0.07844712 -0.16355395 -0.23041093 -0.16473925 -0.26689768 -0.3607564 0.023502802 0.25132746 -0.049677517 0.0848975 0.03947513 0.00704278 0.025277292 -0.22225918 -0.0941609 -0.043034833 0.007177521 0.078460395 -0.06595244 0.21838273 -0.07372014 0.07224114 0.46206713 -0.14861578 -0.1553703 0.020432757 0.23068455 -0.02011113 0.062154997 -0.067932755 0.06425436 0.07325564 0.082300335 -0.08227736 -0.4275462 -0.089227274 -0.11431068 0.3043557 -0.11223451 -0.26967812 -0.009492611 -0.20517285 -0.16907841 -0.020347675 -0.13259457 0.2150142 0.0018512087 0.012456642 -0.1474561 0.047426425 0.12074603 0.007969777
713444 0.11793355 -0.2520106 0.02107476 0.024039859 -0.20269659 -0.028032912 -0.026971176 0.15604945 -0.091027275 -0.03500488 0.09386943 -0.13868193 -0.10724736 -0.32109165 0.25118917 0.17935228 -0.43890974 0.095473036 -0.013675856 -0.0775888 0.257965 0.22643237 -0.13403884 0.11234399 -0.02186074 -0.092923574 -0.2549791 0.06886619 -0.16179271 -0.12671456 0.000537089 0.23720568 0.30011284 0.0321779 0.039826453 0.09286225 0.13290812 0.3226816 0.06585896 0.044700574 0.06998405 0.13592686 0.043504786 -0.0058286837 0.076251335 0.043113083 -0.030796474 -0.14406723 -0.0031403233 -0.09716146 -0.033423837 -0.13017112 -0.2224487 0.09490814 -0.009445851 0.064482965 -0.13996014 0.19730142 0.18521415 0.11705372 -0.014140778 -0.26887563 -0.09605673 -0.16902849
712726 0.12068458 0.27688864 -0.054931007 0.30629158 0.1748995 -0.10366503 0.31789884 0.03463713 -0.20030442 0.07506127 0.14130442 0.40744153 -0.23944335 -0.0036675017 0.036086477 -0.15912159 -0.40104443 -0.17200862 0.24845138 0.19985642 -0.11855804 0.0038885518 0.039526347 0.14739512 0.025851665 0.074340545 -0.011182704 -0.048145775 0.078353465 0.17777516 -0.021007396 0.04415741 -0.009791201 0.1050408 -0.23186463 -0.15272981 -0.008963483 0.29639378 -0.011831505 -0.13997571 0.09386883 0.06774562 0.0655803 -0.5407287 0.08439544 0.054061383 -0.12601107 -0.04200763 0.052932937 -0.05302677 -0.037600074 -0.071068816 -0.0945653 0.39886948 0.047246564 -0.34412572 0.03005947 -0.006399975 -0.3378808 -0.15410613 0.037176557 -0.11822783 -0.004281574 -0.2754417
713028 0.005949923 0.31631655 -0.14956185 0.04705707 -0.20201373 -0.12924281 0.039777495 -0.063810535 -0.30199206 -0.17778656 0.052044295 -0.18227616 -0.34474757 -0.26014468 0.036680605 -0.10827189 -0.0681419 -0.026517527 0.019467864 -0.10800962 0.00523756 0.28152737 0.18742351 -0.1461439 -0.041899476 -0.10056724 -0.20355803 0.028195322 -0.25536692 -0.021103429 -0.14591782 -0.34559768 0.058788523 -0.2144213 0.26303935 -0.20631978 -0.08130749 0.005632936 -0.00879548 -0.095674895 0.1298238 0.066264786 -0.17362975 0.0113332 0.13646731 0.10634925 -0.010796218 0.26467073 0.1588769 -0.03425144 -0.34635487 -0.046213206 -0.14499941 0.25409493 -0.3522516 0.057536297 0.25059173 -0.0415126 -0.0025029595 -0.111787 -0.111557946 0.18618163 -0.16390374 -0.29645452
714476 0.12013105 0.21461655 0.10744075 -0.1580328 0.060490765 -0.012519589 0.20808625 -0.3012824 0.10744827 -0.097884566 0.07552329 -0.28324738 0.116582476 -0.09538738 0.18548016 0.017258704 -0.086760655 0.06937397 -0.03777649 -0.06078881 0.043378163 -0.24386874 -0.3114052 0.53171426 -0.18419655 -0.19506456 0.0404346 0.16822559 -0.13217992 -0.25459373 -0.17093927 -0.22385105 0.16359846 0.03366941 0.4536892 0.10906474 -0.11728621 -0.2608953 0.23507233 -0.38095057 -0.08616831 0.07005156 -0.27699348 -0.09964645 -0.089394815 0.1314641 -0.08261169 -0.20263141 0.25533405 0.097358055 -0.14110251 -0.03705871 0.082382604 0.2380723 0.13797732 -0.19873299 -0.03141647 0.040094115 -0.023518573 -0.35682058 -0.5529684 0.19385745 -0.1305384 0.019878702
713389 -0.06712367 0.017827556 -0.1680481 0.35237774 0.05290037 0.08781766 -0.11948606 0.037086334 0.13056187 -0.04210503 -0.01639504 0.2002268 0.15940608 -0.2552507 0.14374219 -0.15270627 -0.25166205 0.037042167 0.22292708 -0.06930375 -0.017722672 0.12846735 -0.091844924 0.11318898 0.04163932 -0.012541368 0.33002806 -0.062224716 0.099745065 -0.0223766 -0.060230423 -0.15699044 -0.17070216 0.0700693 -0.036627565 -0.060155027 -0.1758483 -0.017126841 0.089430906 0.12861693 0.3914847 -0.033757035 -0.0011792675 0.24908344 -0.0029781351 -0.065181375 0.23543516 -0.018728971 -0.109632395 0.15135263 0.14890526 -0.27820414 0.05211963 -0.15561998 -0.094233885 -0.13675661 -0.04113931 -0.035755463 0.036018107 -0.013493622 -0.21250649 -0.21000785 -0.06109137 0.2283302
713909 -0.20632453 0.0014410435 0.19287995 0.14859554 0.14584251 0.11645937 -0.12538198 -0.02820544 -0.042985056 -0.124954455 -0.23814543 0.024221605 -0.060290813 -0.14257479 -0.059288085 0.112755455 -0.104572706 0.06330406 -0.018797886 0.348586 -0.11470128 0.18592949 0.030663738 -0.13437559 -0.09645127 -0.038119275 0.05380336 0.3065158 -0.0861213 -0.14237632 -0.14522135 -0.09732061 -0.101624064 0.10782051 -0.25877574 0.047358513 0.32039374 0.11337921 0.18745385 -0.22044122 -0.2972787 -0.2642188 -0.096244566 0.029941844 0.15464799 0.067489706 -0.12540784 -0.03494991 -0.17182532 0.20083077 0.27376276 -0.026873874 -0.0623502 -0.015901271 -0.057261977 -0.14402622 0.0073381355 0.20450836 0.009340003 -0.22036746 -0.28072217 0.0072988844 -0.069334015 0.017947618
714090 0.21083975 -0.045624834 0.19432333 -0.0022429733 -0.07171789 -0.0049793688 -0.031177662 0.0027419361 -0.019838288 0.23633517 -0.22488546 -0.032764506 -0.26581386 0.1262302 0.041033752 0.1096018 -0.2621878 -0.051977776 0.11994348 0.10406355 -0.09999465 0.16022034 0.06469178 0.10549003 -0.13588002 -0.11647837 0.085345745 0.041882064 0.06816616 -0.16009937 -0.09035121 0.029414112 0.10711181 0.10722903 -0.17400855 -0.1270265 0.023707695 -0.045070168 0.069962464 -0.30626908 0.072337925 -0.28839418 -0.025381811 -0.15896946 0.16283932 0.13499583 0.066789545 0.041578516 -0.08676824 0.06027776 -0.08196351 0.108687416 -0.124681875 -0.040144682 0.06059873 0.2201654 0.089195415 -0.07847545 0.051456574 -0.13980792 -0.2631107 -0.24071151 -0.08527938 -0.12026274
714124 0.11953857 0.15974438 0.09122412 -0.014109884 -0.19533215 -0.2303358 -0.10139815 -0.013831986 0.07483305 -0.26296875 -0.08517331 -0.02828195 0.20067306 -0.20789167 0.094408154 -0.0052546724 -0.41262683 -0.03267276 -0.04868782 0.094635345 -0.0032058689 -0.16226375 0.20992942 0.09380027 0.08191845 0.14838225 0.18105727 -0.15622088 -0.21271612 -0.16315524 -0.2343841 0.038536157 0.14529909 0.16446826 -0.09105105 0.21657589 -0.29514164 -0.047944803 0.0918598 0.15664834 0.022884369 -0.14001195 0.23566407 0.07423134 -0.09170268 0.19368184 -0.04529038 -0.14058594 0.02996651 0.079066284 0.012978553 0.07084436 -0.12119807 0.24723367 0.08183984 -0.006141285 -0.09414659 -0.13306613 0.15652387 0.00790446 -0.10781288 0.33325404 0.118194886 0.060640242
712864 0.12307321 0.39706782 0.11325108 0.17976435 -0.02108166 0.12513626 -0.21427849 0.009689449 0.13042688 -0.13581473 0.03132703 -0.055370238 0.10761474 0.023831986 -0.108071186 0.15514947 -0.037130523 0.34001032 0.18768321 -0.09045444 -0.117931254 0.01950356 0.1225448 0.09587619 0.02168156 0.087318175 -0.12448117 0.04311127 -0.02101111 0.14438869 0.11773759 -0.24463454 -0.12357831 0.28649437 -0.2553264 -0.043120693 0.06036062 -0.0994529 -0.07054139 -0.2711882 -0.18611147 -0.30743238 -0.110583246 0.006726715 -0.06380717 0.058043063 0.052094437 -0.15744486 0.03136142 0.18705808 0.01638082 -0.0126395095 -0.01135961 0.37970924 -0.091010325 -0.1947187 0.0651402 0.058910392 -0.20087092 -0.0017712286 -0.05346698 0.2721106 -0.03833445 -0.21282029
714521 0.07863186 0.40583083 0.0064429482 0.039333533 0.052781172 -0.08627513 0.08768428 0.09857488 0.08489857 -0.25830677 0.13701518 -0.17974754 0.068017855 -0.10436187 0.032789074 -0.19422661 -0.20337515 0.044758085 -0.21800482 0.02128179 -0.028008528 0.035090502 0.27885756 0.3849783 -0.05856373 0.08866382 0.006702323 -0.16431525 -0.102057956 -0.025109353 -0.3187851 0.040351864 -0.21215418 0.2625466 0.0065867607 -0.11607884 -0.03980465 0.12267475 0.02139301 0.039369594 0.117822945 0.23391457 -0.05926358 0.13487256 0.23344 -0.11406741 -0.1296951 -0.020521076 0.07244271 0.26020277 0.2616042 -0.069748744 -0.03152008 0.17546664 -0.05881826 -0.2212358 -0.17273477 -0.09189766 -0.09305301 -0.16949837 -0.0599891 0.21231614 -0.087632544 -0.1281767
714163 -0.03158563 0.33988866 -0.19560616 0.017033638 0.0012559827 0.17236501 0.050748054 0.0075533777 -0.21119016 0.0152829345 -0.33182582 0.09330678 0.042243727 -0.09053344 -0.16536549 0.028588926 0.1394704 0.07759056 -0.19070897 0.19378114 -0.23558487 0.07832148 0.18182895 -0.041557577 0.12926003 0.12582748 -0.16933648 -0.17790492 -0.21097322 0.13295266 -0.09347972 0.107732624 -0.22394261 0.13199931 -0.0033329155 0.033260655 0.055043563 -0.050318047 0.39915428 -0.14313625 0.0125553245 -0.034434605 0.030641714 0.23102091 0.048219323 -0.109664395 -0.13212173 -0.18893883 0.062237743 0.18197049 0.04961609 0.052999664 -0.18837743 -0.048217017 0.18064095 -0.004288138 0.26066217 -0.2486522 0.086333394 -0.092913896 -0.05205561 -0.03647624 -0.47218168 -0.05845062
240292 0.1239907 -0.17640798 -0.07915448 0.069009304 0.09703504 0.029649613 -0.013116934 -0.043852072 0.14805257 0.04788764 0.30381742 -0.14491242 0.11687 -0.22847831 -0.13426656 0.08104327 -0.03489281 0.30656728 -9.14014e-05 0.2707661 0.040063333 -0.033482682 0.12052869 0.16436712 0.11468096 -0.05298044 -0.15864933 0.099053286 -0.044331085 0.13765228 0.009619523 0.11589179 -0.17253715 0.39279205 0.08365182 -0.008311055 0.089855485 0.06739283 0.20578723 -0.0972273 0.28733727 -0.19929715 -0.0071514715 -0.34615034 -0.13850397 -0.10052459 -0.043322444 -0.21888977 -0.14132404 0.16966045 -0.20535885 0.09666759 -0.08483736 -0.10301481 0.19459908 -0.0035710272 0.088906586 -0.21689872 -0.04796115 0.051076587 0.012968468 0.102670185 -0.18224388 0.23922847
715659 0.043523233 0.15805735 -0.07038135 -0.033926938 -0.15659769 0.013472141 0.16653551 0.0051612537 0.25194 -0.08595211 -0.48975387 0.034009952 0.062079452 -0.37493038 0.00050957204 -0.04641238 -0.3734257 0.33280903 0.137714 -0.119285926 -0.063949205 -0.2630199 0.09748253 -0.3084784 -0.033897392 -0.09593957 -0.035893414 0.059369616 0.25435677 -0.34076282 -0.2349199 0.014892839 0.12818754 0.25684273 0.1595902 -0.06722153 -0.3098916 -0.18880785 0.048338544 -0.009362136 0.18834816 0.10764525 0.35894722 -0.24054699 0.2793034 0.09670296 -0.18128327 -0.0070698424 -0.48089477 0.03613593 -0.048843168 -0.028930657 -0.28902212 0.15102234 0.04119361 -0.014016288 -0.21941443 0.17526175 -0.36403927 0.045756694 0.21465376 0.15221855 0.13106972 -0.02494122
712919 0.019475028 0.07557536 0.14894722 -0.2424992 -0.061692663 -0.08027428 0.18199927 -0.18598998 -0.2579472 -0.03144467 0.050207138 -0.08958783 0.13578753 0.08154268 0.09890303 -0.12502792 0.013200857 0.15412103 0.27230433 -0.18336502 -0.02487349 -0.015705928 -0.036406968 0.09788445 0.22784105 0.25568324 0.18489018 0.30021778 0.0059591895 0.018768476 -0.18005605 -0.045694377 -0.0024901584 0.3211787 -0.07916741 -0.18043706 0.012184759 0.19813147 0.41544494 -0.09261967 0.23385371 -0.13384922 0.18669997 0.02797866 0.28934795 0.06886179 -0.21832798 -0.06638021 0.11058483 -0.025008744 -0.052571815 -0.035570692 -0.21635519 0.06338126 -0.071891114 -0.077861436 0.18666607 -0.10639871 0.030475222 -0.05237682 -0.14214715 -0.019559884 0.081295356 -0.024823345
712896 0.1646649 -0.013198296 0.07308765 0.36431494 -0.18815958 0.028151402 0.043928806 -0.26088393 0.20383368 0.014433815 -0.14011149 0.20355754 0.10304059 -0.034557305 0.017055498 0.011301785 -0.09997858 -0.041916102 0.098883495 -0.26371813 -0.011594817 0.1817959 -0.09263663 -0.17143923 0.02905933 -0.063127965 0.06812689 -0.1556014 0.34173065 -0.045271058 -0.017560994 0.06329816 0.15359162 0.13002397 0.035671283 -0.00042076092 0.1082244 -0.19167572 0.08949276 -0.15973952 -0.10015094 0.013316968 -0.023900183 0.010940332 0.10414001 -0.17785107 0.03670455 0.040965244 -0.10988115 -0.13197401 -0.1016183 0.1581112 -0.10781788 0.24813452 0.0028663182 0.22305585 0.220014 -0.1045866 -0.024033658 -0.24037491 -0.29265362 -0.19509241 -0.13611706 -0.00055552565
715330 -0.11591231 0.057817582 0.3946145 0.42379043 0.2075888 -0.010794611 -0.24187697 0.12620907 0.21501105 -0.279497 0.015865197 -0.27335548 -0.25241718 -0.18494633 0.34831238 0.018613763 -0.025887897 -0.39677396 0.19508879 0.113063365 -0.10902673 0.09313647 0.1081447 -0.28998798 0.22859663 0.1377979 0.21429153 -0.19928892 -0.024621453 -0.054983564 0.17988841 -0.16695464 0.16470458 0.18898147 0.17809734 -0.0955355 -0.10725969 0.39412007 -0.07287815 -0.20374757 -0.047958404 0.15459788 0.03466318 -0.0025552958 0.0450906 0.25107396 -0.2856334 -0.3848144 -0.16523702 0.091632605 0.10234648 0.2141368 0.0008549381 0.1496318 -0.0067186207 -0.29927015 0.13659723 -0.23835498 0.03780167 0.15701747 -0.25923064 -0.016227614 -0.15538429 0.25800148
714981 0.3167639 -0.37408832 0.3159008 0.07331744 -0.2845745 -0.23796155 0.03489294 -0.2935283 -0.156663 -0.27303007 0.20884332 -0.18846105 -0.36095065 -0.38355044 0.586856 0.09800856 0.101100974 -0.09511276 0.13705042 -0.30043823 0.12467487 0.26769426 0.3352985 0.060665093 0.25719553 -0.069955476 -0.25392717 -0.31230217 0.26910374 0.49740162 0.15044715 0.34348562 -0.60238284 -0.38984507 -0.13397464 -0.005706287 -0.045445636 0.49070224 0.14660692 0.11572781 0.5581501 0.5531085 0.14965503 0.06020126 -0.13816594 -0.5680336 -0.34049848 -0.24343899 -0.0576301 -0.056324635 -0.074257776 -0.16039082 -0.049377225 0.5215143 0.49586704 -0.03525202 -0.20699432 0.008805491 0.13620856 0.16484708 -0.16980377 -0.32339394 -0.2748868 0.13621967
712646 0.15596484 0.26366353 0.20138282 -0.04659274 0.0024615624 0.22937678 -0.1359545 -0.078141145 0.007835448 0.06967912 -0.051874276 -0.044846885 0.12743537 -0.1564515 0.30166632 0.20652021 -0.1852099 -0.026344141 -0.15290517 0.23036528 0.23247577 0.22769588 0.07593839 -0.09437272 0.13943872 0.13673037 -0.04029428 0.1322928 0.17528012 -0.3199437 -0.08120107 0.0736194 0.15422541 -0.063481025 -0.025442066 0.019519217 0.07634292 -0.17661405 0.16676171 0.34350663 0.080954716 0.057353113 -0.481501 -0.35188872 0.10551932 0.24743824 0.114483505 -0.08057424 0.069447875 0.1591654 0.019402198 -0.07530881 -0.031756796 -0.035877205 -0.34514788 -0.23561579 -0.17235912 0.31866324 0.25951985 -0.049360905 -0.081116125 -0.09498964 0.047019072 -0.13137425
714369 -0.19170283 -0.04240681 0.22142914 0.120095074 -0.11111769 -0.2149615 -0.21010697 0.009371159 0.12242936 0.014314519 0.051143542 0.17304769 0.39307234 -0.16418846 0.30910984 -0.038804162 -0.18793906 0.15101148 0.053179838 0.5249175 -0.27977765 0.21315281 0.16231188 -0.09902226 -0.07755169 -0.161413 0.021487294 0.27797344 -0.24023531 -0.022038862 -0.30277422 -0.20214064 -0.1314031 0.037661243 -0.016722705 0.32403612 -0.23167408 0.1756206 -0.08015667 -0.013096962 -0.014300644 0.060547113 -0.39287603 0.13479425 -0.024182634 0.16893254 -0.13694316 0.22913648 0.056056593 0.16684772 0.26962766 0.06849743 -0.14452602 0.1866456 -0.14801441 -0.032797463 0.25038296 0.0019121818 -0.0023941689 0.11559626 -0.040078655 -0.25515944 -0.10535792 0.2214226
714105 -0.01756883 0.034677155 -0.16838096 -0.015297656 0.044753168 -0.21592179 -0.061468527 -0.15393381 0.08124993 0.048962343 0.2173902 0.07820994 0.10556001 -0.08437591 -0.14459383 -0.20069285 -0.23098643 0.17480731 -0.095363244 -0.20960902 0.008385531 -0.04350793 0.029679669 -0.037436914 0.13604559 0.13979447 0.07716168 0.076551326 -0.19883403 0.027886828 0.024240972 0.268323 -0.2067972 -0.15786144 -0.018954098 -0.22688235 0.24275315 -0.23298642 0.2667397 -0.36182138 0.17007552 -0.18656148 -0.14132531 0.022161797 0.04867333 0.22911867 -0.010241122 -0.096121594 -0.29632184 0.16071962 0.16938387 -0.038951106 0.0998778 0.1017104 0.15909861 -0.046922058 0.21209587 0.08857511 0.19747667 -0.1874819 -0.11234954 -0.21275496 -0.21277048 0.24116117
713336 0.047892474 -0.0012501816 0.1923167 -0.0066573387 -0.0021409835 -0.017052475 0.0125707695 0.11172007 -0.22262706 -0.029638158 0.16442911 -0.1792025 0.19568586 -0.18082258 -0.070029855 -0.089314245 -0.50447845 0.013079457 -0.109398134 -0.17586593 -0.021520609 -0.056621954 -0.07492853 -0.083536774 0.08245484 -0.049330097 0.17827809 -0.22582859 -0.055833988 0.053669374 0.23815368 -0.16654664 -0.23343787 -0.00839393 0.2868742 -0.065517195 -0.08043417 0.094916396 0.052800976 -0.11028615 0.11674148 0.029754844 0.03712356 0.16464049 0.17069769 0.13396148 -0.04475908 -0.038379293 -0.13057807 0.29130113 -0.077151455 0.014630768 -0.11421086 -0.0993755 0.05690723 0.0847487 0.07378082 0.010767894 -0.058693957 0.09443657 -0.2478123 -0.18691029 -0.01693442 0.052370798
714292 0.11076868 0.07674325 0.23080395 0.117152154 0.035156094 0.049220238 0.03567764 0.11916446 0.047327228 -0.13740695 0.1847998 0.07584204 0.036336154 -0.10064925 0.0017468632 0.24316913 -0.0062015355 0.25981158 -0.27924338 -0.15642941 -0.3711399 0.10758374 0.020813245 -0.014504857 0.0368685 -0.23901044 -0.08387408 0.32279772 0.031502716 0.12401483 0.12392362 -0.096764416 -0.11454502 -0.14038458 -0.24668606 -0.27491564 -0.04591973 -0.3148783 0.14876711 0.09009226 0.15157537 0.079198524 -0.21958669 0.06319366 0.09836665 0.056713473 0.114328794 -0.24543689 -0.21790984 0.30044222 -7.033928e-05 0.08519301 -0.08493473 0.08179036 0.15737557 0.13064529 -0.031276222 -0.077570714 0.07184992 0.2708543 -0.027681256 0.091343656 -0.17161183 -0.20531455
713194 0.16497158 0.35028303 -0.09663466 0.027572881 -0.042484675 0.27011415 -0.27407262 0.1356403 0.1733727 0.020080844 -0.2375506 0.07182384 0.18873152 -0.1453252 0.083974175 0.2405842 -0.39716583 0.31141594 -0.14052345 0.22051062 -0.045686003 0.037419833 -0.068542026 0.23528735 -0.12294872 0.095422275 0.17369962 -0.30831075 -0.20012978 0.17275175 -0.07062184 0.05560566 -0.19810405 0.004974764 0.07454782 0.075954385 -0.044175792 0.033977706 0.17392042 0.16604076 0.17105971 -0.12251792 0.16723612 0.0677648 0.2528459 0.0494567 -0.03280994 0.055835314 0.042772047 0.19321544 -0.01678529 0.10266327 -0.089511774 0.11456934 -0.18261309 -0.023380034 0.05631691 0.12804615 -0.13522282 0.15450078 -0.22087246 0.23344232 -0.083715566 0.12977895
713468 -0.36129767 -0.16242987 -0.027888592 0.10745355 -0.10594774 0.25675496 0.09444825 -0.14291877 0.17768602 0.15407601 0.15586019 -0.10083723 -0.051626865 0.11448533 0.025282882 0.055071283 -0.20904468 -0.037622165 0.19374803 -0.015053298 -0.18449977 0.12373266 0.124047495 0.061325334 -0.086233005 0.08154423 -0.11745972 -0.23916532 -0.114175804 -0.052574698 0.08509648 -0.20281345 0.11057455 0.16332087 -0.17899786 0.18532932 0.1790149 0.009523343 0.09847531 -0.14761448 0.17263395 0.09793891 -0.29842526 0.00199306 -0.06653164 -0.18905729 0.08414645 0.025280774 0.28016046 0.4772227 -0.100434676 0.11386226 0.083890006 0.43271855 0.08088811 -0.021339653 -0.25604433 -0.09935934 0.13827102 -0.1295182 -0.1800675 0.027228083 -0.046615705 -0.103168055
453567 0.15606412 0.024961617 0.17636147 0.122268066 -0.23384652 0.23933902 -0.18758717 0.21456903 0.20289025 0.32737842 0.3271174 0.16515382 0.32028994 -0.048644558 0.05860485 0.21256791 -0.12844464 -0.09956034 0.035237618 0.15276672 -0.12938862 0.34994337 0.19301195 0.15592763 0.26598033 0.08338221 -0.10391169 0.031336527 -0.08849583 0.065299496 0.27310458 -0.0011147407 0.04906439 0.108890384 -0.03442217 -0.046869118 0.058763556 0.111412846 0.04958881 0.18774688 0.08578877 -0.022311836 0.28784177 -0.035461597 -0.014053332 0.03573295 -0.0700921 -0.16903259 0.20942718 0.12178175 -0.17329971 0.097816095 -0.04306938 0.03913881 -0.082939185 0.06945089 -0.026420426 0.27332473 -0.21842735 -0.10060545 -0.07773414 -0.1558622 0.06296602 -0.118957326
712473 0.42931744 -0.27748236 0.19418238 -0.17187715 0.11513016 -0.05826271 -0.3194356 -0.1374172 -0.14176475 0.032173317 0.1128252 0.05556439 -0.37646472 -0.1749324 0.0784794 0.11300076 0.09439749 0.050095107 0.17748074 0.29242513 -0.033549517 0.20744528 -0.045657873 -0.15744811 0.2422357 0.2873387 0.17205179 0.100988254 0.32704058 0.090396814 -0.11483196 -0.03999969 0.008065652 0.012019274 -0.22550994 0.29518855 0.1476259 -0.24300843 0.06899177 -0.015187391 0.10052582 -0.09106282 -0.096699335 -0.018394927 0.20565735 -0.0332307 -0.065673545 -0.16854371 0.11293775 0.32131228 0.11350414 -0.26611525 0.03654847 0.3488662 -0.2281488 -0.0058034942 -0.04893345 -0.18086447 0.095521085 0.055243045 -0.12088543 0.21323374 -0.25493973 0.39546618
711995 0.18359636 -0.009360139 -0.05498461 -0.4933222 -0.072101004 0.16819353 0.04302395 -0.17371856 -0.08590538 0.14558257 0.102396555 0.004692233 0.12268847 0.15596774 -0.031186532 0.098548494 -0.16572869 0.10349289 0.07131991 0.20777504 -0.002943816 0.31989935 -0.5624619 -0.24990198 0.18198565 -0.059894595 -0.15470548 0.069982655 -0.027847677 -0.3855012 -0.035662077 0.053038932 0.16858886 -0.06629043 -0.044525627 0.36510727 -0.05824356 0.122264005 0.078777075 0.09903839 0.03612879 -0.32311964 0.120286085 -0.121732965 -0.008924115 -0.4809525 0.277769 -0.17632364 0.2517319 0.32969064 0.18174766 -0.32094505 -0.5282511 0.4247878 0.15207405 0.059330337 -0.05844857 -0.16305661 -0.4985161 -0.40988463 0.2174984 -0.21534692 -0.011907669 0.053908236
712459 -0.021900069 -0.23760727 0.20649321 0.10361555 -0.11291759 -0.07258319 0.34383607 -0.10064566 -0.18252386 0.14632814 0.35251093 -0.029388439 -0.09265034 0.0023569765 0.09428467 0.08638391 0.28508484 -0.22879788 0.30539298 0.46010488 -0.07647087 0.09762578 0.14039677 -0.07575196 0.0115856705 -0.006100232 0.17928645 -0.40239644 0.028975725 -0.16997239 -0.35044813 -0.21046846 -0.09668608 -0.057442065 0.045235213 0.105657324 -0.026094364 -0.08783837 -0.33458012 -0.1369857 0.24479064 0.19056945 -0.14338623 0.23637931 0.12327682 0.38113114 -0.1922623 -0.1852453 0.13953774 0.14015132 -0.031202238 -0.081078574 -0.503911 0.328786 -0.32928765 0.16021135 -0.1532107 -0.12065017 0.05878293 0.1493779 -0.1334956 -0.23789304 0.238018 0.08057843
713947 -0.08776815 0.21069495 0.097823806 0.046553206 -0.020714212 0.010795875 -0.13360898 -0.077382125 0.1791101 0.13291329 0.06569862 0.09303692 -0.0037416872 -0.01626692 0.023142742 -0.046842862 -0.2919784 -0.012202053 0.07771012 -0.3192836 0.009694303 0.043183643 0.17317334 0.20883977 -0.024675587 -0.06110166 -0.34077135 -0.10231421 0.11194408 -0.08523238 0.05487209 -0.105672345 -0.14682351 0.21065518 0.08837848 -0.124331966 -0.058712162 0.42179698 0.22252113 0.06079898 -0.108506985 0.20870608 -0.04237366 0.20210613 0.20361213 -0.055612475 0.24215259 -0.07686086 -0.3100977 0.35191306 0.024182541 0.06584757 0.06051048 0.11165547 0.37444597 -0.02324522 0.09104423 0.060267426 0.2667733 -0.016003318 -0.15463972 0.12819868 -0.0077203163 -0.082826614
714065 -0.13443144 0.13883534 0.15862823 0.025227094 0.08545356 -0.19215369 0.08437471 0.056786504 0.065787695 -0.18461132 0.18344322 0.38365275 0.16060242 -0.17697132 0.06683984 0.18352605 -0.3456822 -0.10686056 0.13856421 0.2998061 0.05538197 0.09075484 -0.0073884493 0.4801733 -0.09605364 0.12139615 0.0542866 -0.10952644 -0.039997384 0.023101253 -0.081755035 0.23183158 0.102007225 0.16804512 -0.09870316 -0.009595311 -0.050921317 0.050776783 0.12363652 -0.023896718 0.15077288 -0.28871214 -0.029451694 -0.013081136 0.20645435 0.04048249 -0.16985562 -0.03940877 -0.04801534 0.036248818 -0.0112651065 -0.015653076 -0.0734824 0.025115913 0.06289382 -0.099293604 0.11565921 -0.14856362 0.08704795 -0.008788026 -0.16612782 0.04218132 -0.012712207 -0.17605829
711959 0.03891063 -0.6150155 -0.35390082 -0.58088714 -0.5621029 -0.5021897 -0.005749879 0.16053623 -0.69457036 0.28997377 -0.10617467 -0.11654099 0.057429273 0.17289332 -0.20074783 0.10095203 -0.4333287 -0.23421712 0.3498989 0.0068222266 0.10724188 -0.34594205 0.19134454 -0.19868648 0.3278128 -0.41605815 0.17816745 0.5608537 0.34103504 -0.24257925 0.25338438 -0.65061843 0.5267114 -0.5600935 0.27636135 0.2889302 0.048629522 0.09370855 -0.13616863 0.019227888 0.314566 -0.8118043 -0.10472764 -0.21149354 0.053474914 -0.08215734 -0.07353643 -0.42865196 -0.26242653 0.27347147 -0.3427187 -0.23697115 -0.11636575 0.02153782 0.21413665 -0.2413232 -0.39711902 0.23017848 -0.05381156 0.18568487 -0.27097327 -0.040131256 -0.25392312 -0.19737127
715185 0.27681875 -0.4984524 -0.010184287 -0.010183493 -0.29736233 0.01269883 -0.06810331 -0.12785584 0.16648693 -0.19073932 -0.010311439 0.3266705 0.022626933 -0.17687954 -0.15985414 -0.13187943 -0.17888159 -0.16814394 0.20719546 -0.07104583 0.28951824 0.04702398 -0.024792222 0.04029054 -0.086771734 0.030572332 0.08687102 -0.017788298 -0.17300956 0.17526188 -0.08087318 -0.035630565 -0.14556451 -0.16120537 0.17985168 -0.044944573 0.34772223 -0.07846878 -0.21048212 -0.10788402 -0.08264371 -0.15036775 0.08124383 0.050302204 -0.30054793 0.25886738 0.11462509 -0.079597495 -0.1315575 0.13818732 0.36096314 -0.23244458 -0.6770944 0.05267151 0.06406754 0.12947436 -0.15350996 0.16284281 0.02178078 -0.16425993 -0.1160738 0.14807156 -0.06770272 -0.20099957
713979 0.16429874 -0.09641391 -0.031633697 0.1725255 0.1480249 0.075810894 0.020293696 0.002906987 0.06641311 0.12149718 0.020091427 -0.078248665 0.062523045 -0.27984604 -0.05394332 0.016291184 -0.22067071 -0.10005416 0.15153441 -0.052946027 -0.18651983 0.17309792 0.10985243 -0.14256859 -0.105071984 0.00749657 -0.008790905 0.0034048625 0.14547358 -0.09941624 0.017511215 0.24219236 -0.1326295 0.22085957 -0.0066952268 -0.021307975 -0.02066043 -0.002233853 0.25429985 0.06323221 -0.1361709 -0.075828835 0.034395885 0.06890192 0.122131996 0.11306411 -0.0713782 -0.115024365 -0.05786113 0.19954762 0.034227405 0.2146906 0.13336036 -0.10062277 0.15427053 -0.02980509 -0.001572509 -0.07775792 -0.07080441 -0.053676963 -0.15643235 -0.101922534 -0.044967953 0.28745478
712960 0.11140737 0.0014875133 -0.03791454 -0.0666851 0.15461253 -0.2624014 -0.006085358 -0.11313875 -0.44853127 -0.15676352 0.18432975 0.1415885 -0.13004805 -0.4444598 0.017167963 0.023996323 -0.370271 -0.093121946 -0.12866725 0.26382834 0.010602661 -0.18951109 0.28526768 0.037676435 -0.16696568 0.11360767 -0.36456093 -0.08237607 -0.14625388 0.047907744 0.07339677 0.04137706 0.31551605 0.18366125 -0.13746789 -0.068899706 0.26841134 -0.23106422 -0.27057707 0.08578326 0.28147432 -0.1434508 0.24628705 -0.12865832 0.077224426 0.119558625 0.019811742 0.13249521 -9.132252e-05 0.31667614 0.17605247 0.132944 -0.34341362 -0.010454676 -0.048488375 -0.06452383 -0.015378297 0.12646039 0.030984277 0.29040453 -0.16988799 -0.09660448 -0.12360986 0.24690785
714762 -0.013983713 0.2841253 0.14221686 0.0125131775 -0.32364783 0.0001207973 -0.23642246 0.148679 -0.085908815 -0.12084478 -0.0377725 0.080579676 0.10458006 -0.3119379 -0.3806767 -0.02439239 -0.25125337 0.09607451 -0.03870399 0.095222674 -0.19246636 -0.23948553 0.19970767 0.09913446 -0.048517637 0.07605214 0.21960787 -0.36947858 0.22212929 -0.22018902 0.23613675 -0.20697941 0.08684976 -0.18499352 0.019012218 -0.08668808 0.059818998 -0.004369325 0.024342682 -0.22076328 -0.14113474 0.0757254 -0.057322066 -0.030939085 0.12436613 0.18492708 -0.22535387 -0.19885087 0.3979087 0.14951696 -0.28107694 -0.19284804 -0.07636336 0.57939583 0.14724575 0.041895855 -0.23086569 0.010939324 -0.3345629 0.21600561 0.15968373 -0.27814883 -0.18402481 0.030768216
712680 0.2612569 0.109801345 0.120353036 -0.049868435 -0.039290313 0.05911801 0.22502601 0.07080504 0.123105794 -0.19012803 0.0314558 -0.146945 -0.0086645605 -0.009433579 -0.0053372947 -0.19929156 -0.24142152 -0.029311351 -0.08018392 0.21828038 0.07321485 0.124211 -0.032101106 0.1389571 0.026179433 -0.36392888 0.1612325 -0.079562254 -0.18688151 0.1924662 0.21055172 0.12081008 -0.04256166 -0.12168692 -0.17385726 0.15557155 0.1466883 0.15062611 0.38147178 -0.023023939 -0.13843021 0.090369195 -0.07072211 -0.3971892 0.21769385 0.16712384 -0.09591282 -0.07143604 0.16110715 0.24664545 0.04679609 0.06123747 -0.02585517 0.26520893 0.03833227 -0.06334044 0.051751543 0.029859543 0.012966208 0.2908814 -0.1753293 0.00722653 -0.12549926 -0.28973773
715032 0.15322816 0.2161474 0.1508905 -0.03259472 -0.26007456 0.22393045 -0.04582882 -0.12095453 0.07797264 -0.14007759 0.09144453 -0.40674147 0.14270388 -0.1269183 -0.053028833 -0.14623196 0.014857282 0.26325297 0.02380799 0.2856845 -0.13966316 -0.13765992 -0.076486774 -0.17997834 -0.3115578 0.036301848 -0.17111206 0.0765224 0.20709896 -0.2369137 0.2012765 0.12770617 -0.08960906 0.03191617 0.2630555 0.028771069 -0.08063093 -0.15117858 0.35576224 0.15616497 0.004040296 0.061338652 -0.024950305 0.117338866 0.14967489 0.34842712 -0.11997618 -0.23069853 -0.124873385 0.012052337 -0.128756 -0.16462813 -0.13968451 0.11865396 0.33351123 -0.1351939 -0.108668014 0.16917768 -0.030152867 -0.13759485 -0.15894537 -0.07904419 -0.041787166 -0.02018657
712441 -0.1959326 0.16963501 -0.1433469 -0.6065737 -0.36676866 0.5534251 0.3327129 -0.03522134 -0.10972492 0.21702619 0.30574414 -0.22947736 -0.3386816 -0.31821525 -0.05275302 0.35864314 -0.39527738 -0.037211925 -0.13102521 -0.2334785 -0.21023712 -0.0061613424 0.23783512 -0.062869295 -0.025516232 0.34005988 -0.2192916 -0.30964953 -0.1563793 -0.29673287 -0.10086598 -0.09349004 -0.14170203 0.3297587 -0.15851124 0.1562028 -0.22503753 0.19358927 0.20198679 -0.2740319 0.17705992 -0.15303761 -0.42790616 0.08424379 -0.29392457 -0.16965279 -0.45911986 -0.14285299 0.20005645 0.17476596 0.061822865 -0.13178179 -0.15750387 0.120245 -0.28220868 0.0558874 -0.07386222 0.12301377 -0.112440236 -0.20148897 -0.07422996 -0.5050043 0.45198992 0.32110417
712803 -0.14934894 0.18831763 -0.018403413 0.010486442 -0.12270301 0.09680502 -0.33397368 -0.119924486 -0.1711632 0.10101907 -0.12213696 -0.15599732 0.059176933 0.13976991 0.24899663 0.08293147 -0.22088064 -0.043670163 -0.0026165282 0.18939431 -0.15904583 -0.17719063 -0.028602105 0.19942765 0.29686296 -0.0963729 0.14396968 0.07429172 -0.25417173 -0.22745891 0.02792129 -0.13160954 0.03772586 0.067598484 -0.032915358 -0.29621768 -0.16398047 0.044294428 0.29556635 0.09127639 0.11455031 -0.04763207 -0.14802112 -0.112298876 -0.15526497 0.34203902 0.037902292 0.08296572 0.28105196 -0.07416616 0.18496156 -0.27538082 0.008520614 0.20829171 -0.14398958 0.19558965 0.12743588 -0.040829767 0.21146868 0.3817835 -0.18062592 -0.08697964 -0.061637882 0.093418844
712892 -0.03765536 -0.105619185 -0.076145224 0.004520622 -0.11353194 0.14186528 -0.06361207 -0.020779835 0.5110427 0.02778273 0.08466328 -0.20268211 0.031309728 -0.037882805 -0.0081500895 0.18708712 -0.06851498 -0.04377173 -0.031797703 0.09431081 -0.03401775 0.15126458 0.10712126 0.08203067 -0.15614021 0.07700164 0.25700977 0.06024648 -0.09328311 -0.1653188 0.25262138 0.20367952 -0.0193614 -0.0069873105 0.28558677 0.22074658 0.0696113 0.061836865 0.08404468 0.15094452 0.1216417 -0.10654364 -0.23314889 -0.11193655 0.09736624 -0.1452629 -0.07924958 -0.0456158 0.17426573 0.27606875 -0.2503861 0.03350514 -0.14537436 0.21146728 0.063048765 -0.0058414266 0.12459013 0.38591307 0.104627915 -0.23738992 0.047157537 -0.26512793 -0.00466234 0.05227335
715107 -0.14167033 -0.06792117 -0.11131189 0.19742401 -0.26102948 0.03218645 0.084868155 -0.3738185 -0.21632998 -0.06827332 -0.24999122 0.18929836 -0.22424008 -0.058893755 0.19969979 0.021449942 -0.27756697 -0.07722499 0.009301966 -0.13225795 0.071312055 -0.13675864 -0.13460128 -0.35343674 0.14075422 0.09799447 -0.1861714 0.12087197 -0.004843243 -0.26336336 0.037020024 -0.030777143 0.21876079 0.35790074 0.112422585 -0.22461982 0.2150871 0.17208208 -0.19452018 0.2807102 0.10683494 0.17819482 -0.30740812 -0.050510425 -0.028349655 0.17372447 0.31984374 -0.118639454 -0.14222388 0.18508378 -0.11103938 -0.1786292 -0.114395216 -0.30106223 0.1631015 0.15858263 0.33478183 0.22230057 0.12565406 -0.081993505 -0.048121247 -0.31794715 0.14501654 0.080537595
712934 -0.06649398 -0.092389695 -0.19514735 0.2624322 -0.0041338434 -0.054366007 -0.03475655 -0.3203238 0.26966447 -0.1095896 -0.18907863 -0.06760535 0.1053439 0.105283566 -0.13936953 0.11431077 -0.2724686 0.068848476 0.13258873 0.12999138 0.17778362 0.30468583 -0.14463706 0.08345706 0.04630407 0.15891324 0.14075767 0.26692787 0.014647771 -0.14359047 -0.22435278 -0.22047387 0.26169768 0.03497868 0.12768312 0.13956247 -0.015130609 -0.112148836 0.36999738 0.07981468 0.40169403 -0.04410931 0.0323496 -0.053667456 -0.02772671 -0.054780543 0.021209039 0.14001894 -0.11980805 0.122334324 0.06810833 0.06623546 -0.079257235 -0.068962894 0.1228681 -0.012330996 0.031262767 0.16261141 0.2619562 0.098227896 -0.16061917 0.12027936 0.064193815 0.051631644
712547 0.1276638 -0.16116117 0.0013198538 -0.07912917 0.16645865 0.3940754 0.055146124 -0.05534403 0.034553166 -0.10020763 -0.15875976 -0.45372233 0.07633906 -0.11694636 0.0066184783 -0.022988915 -0.29035753 -0.116903305 -0.09541854 -0.16305237 -0.24881394 0.16809466 0.046460215 -0.10127233 -0.13190393 -0.2873895 0.06688003 -0.415894 0.2337876 -0.1494248 -0.061916567 -0.32488412 -0.091908045 0.016797494 0.11479903 -0.17271675 0.20571928 -0.20504206 -0.15455125 -0.27001113 -7.7023535e-05 -0.043119412 -0.10103196 0.036842402 0.1450749 -0.22395915 0.043470588 0.24802169 -0.104117624 0.15481631 -0.2504698 -0.4079312 -0.51223946 -0.09437188 0.040160164 0.4504154 0.13022715 -0.07819357 0.19451456 -0.05154531 -0.14550613 0.037784413 0.026008068 0.020880323
714533 0.42452615 0.32031885 0.022158135 -0.072656244 -0.09353218 -0.058086984 -0.20845997 -0.0265719 0.13036175 0.037063904 0.064053886 -0.06269344 -0.023443362 0.1977332 -0.07198876 0.086054936 -0.4870802 -0.25663698 -0.00764158 0.014119709 -0.11344388 0.22464989 0.11433691 -0.14959157 -0.23714392 0.06919386 0.07765914 0.5047674 -0.2963828 0.10640883 -0.19642368 -0.16929717 0.22980699 0.36895165 0.08061809 0.04924559 -0.0258088 -0.2617439 0.28369159 0.0045479806 -0.20281906 -0.047867082 0.18069126 -0.06618254 0.08130306 -0.48737606 0.5064948 0.067200534 0.24849966 0.15259154 -0.03979656 -0.29853225 -0.38359195 -0.023282133 0.0074056913 0.13594735 -0.094499156 0.037319295 0.1865836 -0.21322821 0.11270552 -0.3984126 0.26470506 0.16632324
712302 0.2932303 -0.04242917 -0.024490697 0.33298513 -0.12309747 0.16849943 0.0429573 -0.20126519 0.24748535 -0.1794386 -0.13944304 -0.26734927 -0.05987337 -0.22766307 -0.29361147 0.01926987 0.12011336 0.16615711 -0.13738017 0.13010497 -0.080615506 0.009796504 0.03233582 -0.06879556 0.30572477 0.065167956 -0.33655798 0.06373779 -0.14713237 -0.20380779 0.08604158 0.096726365 -0.07106742 -0.076223694 0.31395325 0.12394164 0.10285984 0.16527876 0.10726903 -0.0025951515 -0.19696333 0.1899807 0.005281488 0.15728351 -0.10234677 -0.00066306454 -0.048240937 -0.020360185 -0.22756858 0.03171007 -0.13865313 -0.11355994 -0.14361197 0.5502729 -0.29219386 0.21189547 0.084078096 -0.326702 -0.22157162 0.041925646 -0.03644382 -0.082719326 0.050769232 0.032256387
714890 0.31767946 0.007263924 0.015791396 -0.19862664 -0.24639142 -0.19783136 0.24645483 -0.36434758 0.1740349 -0.29264367 -0.24415554 0.2452506 -0.02583208 0.1906644 -0.6645371 0.21897411 -0.03620481 0.27533838 -0.30976495 -0.14074439 -0.123880155 0.19127227 -0.18025017 0.1961786 -0.110409975 -0.15289491 -0.2733785 0.12762958 -0.3625545 -0.21218126 0.42030668 0.13747644 -0.16359659 0.3462806 0.14005345 0.16305666 -0.15018626 -0.06922929 0.2002586 -0.17456047 -0.15417999 0.12929408 -0.0007340729 0.36199346 0.29249716 -0.46815267 -0.12014333 0.09801291 0.2252067 0.3543714 0.5457016 -0.2234242 -0.33449996 -0.29509142 -0.107062206 -0.06937893 0.05464148 -0.14041011 0.17530347 0.07697427 0.13492356 0.13634123 0.03922773 0.22319628
714874 -0.23682426 0.25926885 -0.4441361 0.0054956484 -0.076609164 -0.08655108 0.72212476 -0.35341814 -0.30541646 -0.18151383 -0.07459314 0.13216494 -0.059426922 -0.026926061 -0.010221921 -0.044915963 -0.38298917 0.19586425 0.004119188 -0.24261676 -0.33569124 0.20784944 0.23543805 -0.3884597 -0.012458436 0.19941226 -0.11266423 0.41145483 -0.045042906 -0.16452277 0.4395091 -0.05119422 -0.17040977 0.115731 0.2691955 -0.08844552 -0.35082978 0.13211408 0.12105654 -0.23597488 0.15375507 0.20287502 0.028924212 0.010698369 -0.25953123 -0.11840001 -0.21499737 -0.28607997 0.15690784 0.38945678 -0.05637393 0.01258894 0.39523548 -0.061483458 -0.18218206 -0.11169904 0.2563243 -0.024655972 -0.014861536 -0.0049293144 0.09173591 0.021947572 -0.027873756 -0.14744766
714083 -0.014002723 -0.20884314 0.28286716 0.077821456 -0.025604954 -0.08433277 0.10297748 -0.12313734 -0.080866285 0.31566536 0.32385874 0.097462736 0.26188922 -0.15372805 0.24841389 -0.00444325 -0.112342 -0.2755081 -0.06397246 0.020925455 -0.11403123 0.033663817 0.028382922 -0.2603194 -0.06436856 0.08963081 -0.027975803 -0.12449039 0.07714985 -0.02003997 -0.13079841 0.119893834 -0.17025574 0.19691662 0.10108119 -0.039226126 0.22902924 -0.061443157 0.0067543457 0.11535954 -0.10849143 -0.24142487 0.106494136 0.02995455 0.18800406 -0.079118624 -0.24698181 0.0064523635 -0.1534728 0.25253358 0.14352286 -0.18432881 -0.22764602 -0.30598366 -0.529683 -0.13876827 0.07233517 -0.026969422 -0.051379606 -0.22919998 -0.042433314 -0.15992539 -0.11198636 -0.13356721
713234 -0.13454138 0.15657806 0.24285287 0.11737193 -0.10653003 0.10826315 -0.02045068 0.13845558 -0.042418532 -0.114024736 0.054150783 -0.017550774 -0.034822926 -0.035304718 0.24711703 0.19100496 -0.23937969 0.0017917721 -0.16745861 0.099113815 0.073927425 -0.13339408 0.07479514 0.015320922 -0.051725358 0.04506906 0.25194547 -0.07893071 0.006248692 -0.14900698 -0.1168017 0.08036719 0.082004 0.15181196 0.023087362 0.006204694 0.12434139 0.01915061 0.2567386 -0.17145433 -0.070247486 -0.15582135 -0.09191411 0.30444497 0.3365517 -0.04129638 -0.19713362 0.10566004 -0.12570849 0.13983445 0.013603492 0.05520699 -0.16505596 -0.009788116 0.2715739 -0.23104365 0.069733426 0.039017126 0.11398296 -0.06895353 -0.26391262 0.19168927 -0.23450004 -0.13653615
713318 -0.11758463 0.28884196 0.24323691 -0.008193409 0.09196089 0.007831402 0.011774907 0.07728083 0.055272877 -0.043269463 -0.18721493 -0.2815719 0.033107046 -0.113624014 0.15250584 -0.05613131 -0.19301951 0.16449717 0.09248677 0.2023491 -0.20012017 0.15928888 0.24150965 0.10318284 -0.063638605 0.08867847 -0.154589 -0.10429951 0.10060353 -0.06543151 0.30673942 0.07920079 -0.2626496 0.011087356 0.068956316 -0.17044137 0.19428827 0.031065715 0.13163106 -0.050004583 0.077974156 -0.19221555 -0.22864467 0.043213006 0.23019956 -0.091865644 0.20482998 0.06698823 -0.012787693 0.23580274 0.0071662683 -0.046696074 -0.39481315 -0.40370962 -0.08582759 0.05390174 0.0010906527 0.117835134 0.13567871 -0.01903996 -0.34651992 0.082821906 0.11230323 0.060269028
715598 0.0033576796 -0.2356038 0.03429393 0.24403735 -0.3106789 -0.024463855 0.04949225 -0.107363455 -0.15866555 0.28582355 -0.2318878 -0.08823489 0.04023695 -0.07889648 -0.005626275 0.16448402 0.28254583 -0.040748343 -0.0037662715 0.44686237 0.13162991 0.1461728 0.13836709 0.21174008 0.46226585 0.233389 0.23189032 0.2352937 -0.43693998 -0.33976272 -0.10437472 -0.30744255 0.12698433 -0.14903882 0.22190367 -0.19457018 0.018426562 -0.038501818 0.19069687 0.15915681 0.14299977 0.14432399 -0.16218626 -0.3596297 -0.16385888 -0.25793165 0.35715455 0.07867308 -0.38583845 0.120829836 0.05815669 0.020889763 -0.4113149 -0.09688814 0.21429467 -0.13165918 0.034720983 -0.4130045 -0.16743691 -0.2352251 -0.11181124 0.017647604 0.06750284 -0.07804904
